=== Run information ===

Scheme:       weka.classifiers.trees.RandomTree -K 0 -M 1.0 -S 1
Relation:     communities.data
Instances:    1994
Attributes:   103
              [list of attributes omitted]
Test mode:    10-fold cross-validation

=== Classifier model (full training set) ===


RandomTree
==========

PctKids2Par < 0.55
|   PopDens < 0.56
|   |   HousVacant < 0.09
|   |   |   racePctWhite < 0.66
|   |   |   |   agePct16t24 < 0.49
|   |   |   |   |   PctPersOwnOccup < 0.41
|   |   |   |   |   |   PctPersDenseHous < 0.39
|   |   |   |   |   |   |   blackPerCap < 0.26
|   |   |   |   |   |   |   |   PctUsePubTrans < 0.03
|   |   |   |   |   |   |   |   |   PctRecImmig8 < 0.03
|   |   |   |   |   |   |   |   |   |   MedRent < 0.16 : 1 (3/0)
|   |   |   |   |   |   |   |   |   |   MedRent >= 0.16 : 0 (4/0)
|   |   |   |   |   |   |   |   |   PctRecImmig8 >= 0.03 : 1 (11/0)
|   |   |   |   |   |   |   |   PctUsePubTrans >= 0.03 : 1 (19/0)
|   |   |   |   |   |   |   blackPerCap >= 0.26 : 0 (3/0)
|   |   |   |   |   |   PctPersDenseHous >= 0.39
|   |   |   |   |   |   |   PctUsePubTrans < 0.03
|   |   |   |   |   |   |   |   PersPerRentOccHous < 0.86 : 0 (6/0)
|   |   |   |   |   |   |   |   PersPerRentOccHous >= 0.86
|   |   |   |   |   |   |   |   |   pctWPubAsst < 0.95 : 0 (3/0)
|   |   |   |   |   |   |   |   |   pctWPubAsst >= 0.95 : 1 (2/0)
|   |   |   |   |   |   |   PctUsePubTrans >= 0.03
|   |   |   |   |   |   |   |   PctImmigRec10 < 0.61 : 1 (5/0)
|   |   |   |   |   |   |   |   PctImmigRec10 >= 0.61
|   |   |   |   |   |   |   |   |   HousVacant < 0.06 : 0 (4/0)
|   |   |   |   |   |   |   |   |   HousVacant >= 0.06 : 1 (2/0)
|   |   |   |   |   PctPersOwnOccup >= 0.41
|   |   |   |   |   |   RentMedian < 0.06
|   |   |   |   |   |   |   agePct12t21 < 0.43 : 0 (1/0)
|   |   |   |   |   |   |   agePct12t21 >= 0.43 : 1 (5/0)
|   |   |   |   |   |   RentMedian >= 0.06
|   |   |   |   |   |   |   TotalPctDiv < 0.54
|   |   |   |   |   |   |   |   PctFam2Par < 0.41 : 1 (2/0)
|   |   |   |   |   |   |   |   PctFam2Par >= 0.41
|   |   |   |   |   |   |   |   |   PctRecImmig10 < 0.66 : 0 (17/0)
|   |   |   |   |   |   |   |   |   PctRecImmig10 >= 0.66
|   |   |   |   |   |   |   |   |   |   pctWPubAsst < 0.54 : 1 (1/0)
|   |   |   |   |   |   |   |   |   |   pctWPubAsst >= 0.54 : 0 (2/0)
|   |   |   |   |   |   |   TotalPctDiv >= 0.54
|   |   |   |   |   |   |   |   PctHousNoPhone < 0.16 : 0 (5/0)
|   |   |   |   |   |   |   |   PctHousNoPhone >= 0.16
|   |   |   |   |   |   |   |   |   PctEmploy < 0.38
|   |   |   |   |   |   |   |   |   |   LandArea < 0.02 : 1 (3/0)
|   |   |   |   |   |   |   |   |   |   LandArea >= 0.02
|   |   |   |   |   |   |   |   |   |   |   MalePctNevMarr < 0.37
|   |   |   |   |   |   |   |   |   |   |   |   MalePctDivorce < 0.6
|   |   |   |   |   |   |   |   |   |   |   |   |   PersPerOwnOccHous < 0.51 : 0 (5/0)
|   |   |   |   |   |   |   |   |   |   |   |   |   PersPerOwnOccHous >= 0.51 : 1 (1/0)
|   |   |   |   |   |   |   |   |   |   |   |   MalePctDivorce >= 0.6 : 1 (7/0)
|   |   |   |   |   |   |   |   |   |   |   MalePctNevMarr >= 0.37
|   |   |   |   |   |   |   |   |   |   |   |   NumIlleg < 0.03
|   |   |   |   |   |   |   |   |   |   |   |   |   MedOwnCostPctIncNoMtg < 0.39 : 1 (3/0)
|   |   |   |   |   |   |   |   |   |   |   |   |   MedOwnCostPctIncNoMtg >= 0.39
|   |   |   |   |   |   |   |   |   |   |   |   |   |   TotalPctDiv < 0.7 : 0 (9/0)
|   |   |   |   |   |   |   |   |   |   |   |   |   |   TotalPctDiv >= 0.7
|   |   |   |   |   |   |   |   |   |   |   |   |   |   |   PctPopUnderPov < 0.64 : 0 (1/0)
|   |   |   |   |   |   |   |   |   |   |   |   |   |   |   PctPopUnderPov >= 0.64 : 1 (3/0)
|   |   |   |   |   |   |   |   |   |   |   |   NumIlleg >= 0.03
|   |   |   |   |   |   |   |   |   |   |   |   |   PctRecImmig8 < 0.01
|   |   |   |   |   |   |   |   |   |   |   |   |   |   population < 0.03 : 0 (2/0)
|   |   |   |   |   |   |   |   |   |   |   |   |   |   population >= 0.03 : 1 (1/0)
|   |   |   |   |   |   |   |   |   |   |   |   |   PctRecImmig8 >= 0.01 : 0 (15/0)
|   |   |   |   |   |   |   |   |   PctEmploy >= 0.38
|   |   |   |   |   |   |   |   |   |   communityname = Lakewoodcity : 0 (0/0)
|   |   |   |   |   |   |   |   |   |   communityname = Tukwilacity : 0 (0/0)
|   |   |   |   |   |   |   |   |   |   communityname = Aberdeentown : 1 (1/0)
|   |   |   |   |   |   |   |   |   |   communityname = Willingborotownship : 0 (0/0)
|   |   |   |   |   |   |   |   |   |   communityname = Bethlehemtownship : 0 (0/0)
|   |   |   |   |   |   |   |   |   |   communityname = SouthPasadenacity : 0 (0/0)
|   |   |   |   |   |   |   |   |   |   communityname = Lincolntown : 0 (0/0)
|   |   |   |   |   |   |   |   |   |   communityname = Selmacity : 0 (0/0)
|   |   |   |   |   |   |   |   |   |   communityname = Hendersoncity : 0 (0/0)
|   |   |   |   |   |   |   |   |   |   communityname = Claytoncity : 0 (0/0)
|   |   |   |   |   |   |   |   |   |   communityname = DalyCitycity : 0 (0/0)
|   |   |   |   |   |   |   |   |   |   communityname = RockvilleCentrevillage : 0 (0/0)
|   |   |   |   |   |   |   |   |   |   communityname = Needhamtown : 0 (0/0)
|   |   |   |   |   |   |   |   |   |   communityname = GrandChutetown : 0 (0/0)
|   |   |   |   |   |   |   |   |   |   communityname = DanaPointcity : 0 (0/0)
|   |   |   |   |   |   |   |   |   |   communityname = FortDodgecity : 0 (0/0)
|   |   |   |   |   |   |   |   |   |   communityname = Albanycity : 0 (0/0)
|   |   |   |   |   |   |   |   |   |   communityname = Denvilletownship : 0 (0/0)
|   |   |   |   |   |   |   |   |   |   communityname = Valparaisocity : 0 (0/0)
|   |   |   |   |   |   |   |   |   |   communityname = Rostravertownship : 0 (0/0)
|   |   |   |   |   |   |   |   |   |   communityname = Modestocity : 0 (0/0)
|   |   |   |   |   |   |   |   |   |   communityname = Jacksonvillecity : 0 (0/0)
|   |   |   |   |   |   |   |   |   |   communityname = KlamathFallscity : 0 (0/0)
|   |   |   |   |   |   |   |   |   |   communityname = SiouxCitycity : 0 (0/0)
|   |   |   |   |   |   |   |   |   |   communityname = Delanocity : 0 (0/0)
|   |   |   |   |   |   |   |   |   |   communityname = Goldencity : 0 (0/0)
|   |   |   |   |   |   |   |   |   |   communityname = Gardenacity : 0 (0/0)
|   |   |   |   |   |   |   |   |   |   communityname = Perrytownship : 0 (0/0)
|   |   |   |   |   |   |   |   |   |   communityname = Beckleycity : 0 (0/0)
|   |   |   |   |   |   |   |   |   |   communityname = EastHamptontown : 0 (0/0)
|   |   |   |   |   |   |   |   |   |   communityname = Cullmancity : 0 (0/0)
|   |   |   |   |   |   |   |   |   |   communityname = DesMoinescity : 0 (0/0)
|   |   |   |   |   |   |   |   |   |   communityname = Auburncity : 0 (0/0)
|   |   |   |   |   |   |   |   |   |   communityname = Lynchburgcity : 0 (0/0)
|   |   |   |   |   |   |   |   |   |   communityname = FosterCitycity : 0 (0/0)
|   |   |   |   |   |   |   |   |   |   communityname = Evansvillecity : 0 (0/0)
|   |   |   |   |   |   |   |   |   |   communityname = LaVernecity : 0 (0/0)
|   |   |   |   |   |   |   |   |   |   communityname = Woodburncity : 0 (0/0)
|   |   |   |   |   |   |   |   |   |   communityname = Altuscity : 0 (0/0)
|   |   |   |   |   |   |   |   |   |   communityname = Plainsborotownship : 0 (0/0)
|   |   |   |   |   |   |   |   |   |   communityname = LittleEggHarbortownship : 0 (0/0)
|   |   |   |   |   |   |   |   |   |   communityname = EastProvidencecity : 0 (0/0)
|   |   |   |   |   |   |   |   |   |   communityname = Fairfieldcity : 0 (0/0)
|   |   |   |   |   |   |   |   |   |   communityname = Carlsbadcity : 0 (0/0)
|   |   |   |   |   |   |   |   |   |   communityname = Paramusborough : 0 (0/0)
|   |   |   |   |   |   |   |   |   |   communityname = FortCollinscity : 0 (0/0)
|   |   |   |   |   |   |   |   |   |   communityname = Winslowtownship : 0 (0/0)
|   |   |   |   |   |   |   |   |   |   communityname = Artesiacity : 0 (0/0)
|   |   |   |   |   |   |   |   |   |   communityname = Littletoncity : 0 (0/0)
|   |   |   |   |   |   |   |   |   |   communityname = Claremontcity : 0 (0/0)
|   |   |   |   |   |   |   |   |   |   communityname = Kokomocity : 0 (0/0)
|   |   |   |   |   |   |   |   |   |   communityname = Riversidecity : 0 (0/0)
|   |   |   |   |   |   |   |   |   |   communityname = Pennsaukentownship : 0 (0/0)
|   |   |   |   |   |   |   |   |   |   communityname = Medfordtownship : 0 (0/0)
|   |   |   |   |   |   |   |   |   |   communityname = Franklincity : 0 (0/0)
|   |   |   |   |   |   |   |   |   |   communityname = MineralWellscity : 0 (0/0)
|   |   |   |   |   |   |   |   |   |   communityname = Concordcity : 0 (0/0)
|   |   |   |   |   |   |   |   |   |   communityname = Centraliacity : 0 (0/0)
|   |   |   |   |   |   |   |   |   |   communityname = Huntsvillecity : 0 (0/0)
|   |   |   |   |   |   |   |   |   |   communityname = Manvilleborough : 0 (0/0)
|   |   |   |   |   |   |   |   |   |   communityname = Hawthorneborough : 0 (0/0)
|   |   |   |   |   |   |   |   |   |   communityname = Stauntoncity : 0 (0/0)
|   |   |   |   |   |   |   |   |   |   communityname = LaGrandecity : 0 (0/0)
|   |   |   |   |   |   |   |   |   |   communityname = CasaGrandecity : 1 (1/0)
|   |   |   |   |   |   |   |   |   |   communityname = Banningcity : 0 (0/0)
|   |   |   |   |   |   |   |   |   |   communityname = ManhattanBeachcity : 0 (0/0)
|   |   |   |   |   |   |   |   |   |   communityname = Gastoniacity : 1 (1/0)
|   |   |   |   |   |   |   |   |   |   communityname = Mahwahtownship : 0 (0/0)
|   |   |   |   |   |   |   |   |   |   communityname = PerthAmboycity : 0 (0/0)
|   |   |   |   |   |   |   |   |   |   communityname = Oneidacity : 0 (0/0)
|   |   |   |   |   |   |   |   |   |   communityname = Chesterfieldcity : 0 (0/0)
|   |   |   |   |   |   |   |   |   |   communityname = Petalumacity : 0 (0/0)
|   |   |   |   |   |   |   |   |   |   communityname = CedarFallscity : 0 (0/0)
|   |   |   |   |   |   |   |   |   |   communityname = Guilfordtown : 0 (0/0)
|   |   |   |   |   |   |   |   |   |   communityname = Meridentown : 0 (0/0)
|   |   |   |   |   |   |   |   |   |   communityname = Yarmouthtown : 0 (0/0)
|   |   |   |   |   |   |   |   |   |   communityname = DelCitycity : 0 (0/0)
|   |   |   |   |   |   |   |   |   |   communityname = PortArthurcity : 0 (0/0)
|   |   |   |   |   |   |   |   |   |   communityname = Pueblocity : 0 (0/0)
|   |   |   |   |   |   |   |   |   |   communityname = Auroracity : 0 (0/0)
|   |   |   |   |   |   |   |   |   |   communityname = Yonkerscity : 0 (0/0)
|   |   |   |   |   |   |   |   |   |   communityname = Ogdencity : 0 (0/0)
|   |   |   |   |   |   |   |   |   |   communityname = Vernoncity : 0 (0/0)
|   |   |   |   |   |   |   |   |   |   communityname = Polandtownship : 0 (0/0)
|   |   |   |   |   |   |   |   |   |   communityname = Vermillioncity : 0 (0/0)
|   |   |   |   |   |   |   |   |   |   communityname = Carthagecity : 0 (0/0)
|   |   |   |   |   |   |   |   |   |   communityname = LakeHavasuCitycity : 0 (0/0)
|   |   |   |   |   |   |   |   |   |   communityname = SealBeachcity : 0 (0/0)
|   |   |   |   |   |   |   |   |   |   communityname = Lebanoncity : 0 (0/0)
|   |   |   |   |   |   |   |   |   |   communityname = Yucaipacity : 0 (0/0)
|   |   |   |   |   |   |   |   |   |   communityname = KeyWestcity : 0 (0/0)
|   |   |   |   |   |   |   |   |   |   communityname = Clintoncity : 0 (0/0)
|   |   |   |   |   |   |   |   |   |   communityname = EastGreenwichtown : 0 (0/0)
|   |   |   |   |   |   |   |   |   |   communityname = Gladstonecity : 0 (0/0)
|   |   |   |   |   |   |   |   |   |   communityname = RohnertParkcity : 0 (0/0)
|   |   |   |   |   |   |   |   |   |   communityname = Maldencity : 0 (0/0)
|   |   |   |   |   |   |   |   |   |   communityname = Eurekacity : 0 (0/0)
|   |   |   |   |   |   |   |   |   |   communityname = Amescity : 0 (0/0)
|   |   |   |   |   |   |   |   |   |   communityname = Wolcotttown : 0 (0/0)
|   |   |   |   |   |   |   |   |   |   communityname = Manchestercity : 0 (0/0)
|   |   |   |   |   |   |   |   |   |   communityname = Lawtoncity : 0 (0/0)
|   |   |   |   |   |   |   |   |   |   communityname = Wallingtonborough : 0 (0/0)
|   |   |   |   |   |   |   |   |   |   communityname = Hollywoodcity : 0 (0/0)
|   |   |   |   |   |   |   |   |   |   communityname = Amarillocity : 0 (0/0)
|   |   |   |   |   |   |   |   |   |   communityname = Yanktoncity : 0 (0/0)
|   |   |   |   |   |   |   |   |   |   communityname = Bogalusacity : 0 (0/0)
|   |   |   |   |   |   |   |   |   |   communityname = SanLuisObispocity : 0 (0/0)
|   |   |   |   |   |   |   |   |   |   communityname = WestGoshentownship : 0 (0/0)
|   |   |   |   |   |   |   |   |   |   communityname = ElCampocity : 0 (0/0)
|   |   |   |   |   |   |   |   |   |   communityname = Tucsoncity : 0 (0/0)
|   |   |   |   |   |   |   |   |   |   communityname = BoyntonBeachcity : 0 (0/0)
|   |   |   |   |   |   |   |   |   |   communityname = WestManchestertownship : 0 (0/0)
|   |   |   |   |   |   |   |   |   |   communityname = Eastontown : 0 (0/0)
|   |   |   |   |   |   |   |   |   |   communityname = SantaClaracity : 0 (0/0)
|   |   |   |   |   |   |   |   |   |   communityname = Marysvillecity : 0 (0/0)
|   |   |   |   |   |   |   |   |   |   communityname = WestWindsortownship : 0 (0/0)
|   |   |   |   |   |   |   |   |   |   communityname = Inglewoodcity : 0 (0/0)
|   |   |   |   |   |   |   |   |   |   communityname = Marpletownship : 0 (0/0)
|   |   |   |   |   |   |   |   |   |   communityname = OrmondBeachcity : 0 (0/0)
|   |   |   |   |   |   |   |   |   |   communityname = SantaMonicacity : 0 (0/0)
|   |   |   |   |   |   |   |   |   |   communityname = Davietown : 0 (0/0)
|   |   |   |   |   |   |   |   |   |   communityname = ScotchPlainstownship : 0 (0/0)
|   |   |   |   |   |   |   |   |   |   communityname = Delhitownship : 0 (0/0)
|   |   |   |   |   |   |   |   |   |   communityname = Mauldincity : 0 (0/0)
|   |   |   |   |   |   |   |   |   |   communityname = Keenecity : 0 (0/0)
|   |   |   |   |   |   |   |   |   |   communityname = Oregoncity : 0 (0/0)
|   |   |   |   |   |   |   |   |   |   communityname = LowerPaxtontownship : 0 (0/0)
|   |   |   |   |   |   |   |   |   |   communityname = LomaLindacity : 0 (0/0)
|   |   |   |   |   |   |   |   |   |   communityname = Watsonvillecity : 0 (0/0)
|   |   |   |   |   |   |   |   |   |   communityname = Dovercity : 0 (0/0)
|   |   |   |   |   |   |   |   |   |   communityname = Natchezcity : 0 (0/0)
|   |   |   |   |   |   |   |   |   |   communityname = Belchertowntown : 0 (0/0)
|   |   |   |   |   |   |   |   |   |   communityname = Caldwellcity : 0 (0/0)
|   |   |   |   |   |   |   |   |   |   communityname = LaMiradacity : 0 (0/0)
|   |   |   |   |   |   |   |   |   |   communityname = Cliftoncity : 0 (0/0)
|   |   |   |   |   |   |   |   |   |   communityname = NewMilfordborough : 0 (0/0)
|   |   |   |   |   |   |   |   |   |   communityname = Wilbrahamtown : 0 (0/0)
|   |   |   |   |   |   |   |   |   |   communityname = Campbellcity : 0 (0/0)
|   |   |   |   |   |   |   |   |   |   communityname = UnionCitycity : 0 (0/0)
|   |   |   |   |   |   |   |   |   |   communityname = Orindacity : 0 (0/0)
|   |   |   |   |   |   |   |   |   |   communityname = Folsomcity : 0 (0/0)
|   |   |   |   |   |   |   |   |   |   communityname = Salemtown : 0 (0/0)
|   |   |   |   |   |   |   |   |   |   communityname = WestMemphiscity : 0 (1/0)
|   |   |   |   |   |   |   |   |   |   communityname = Vernontownship : 0 (0/0)
|   |   |   |   |   |   |   |   |   |   communityname = Cloviscity : 0 (0/0)
|   |   |   |   |   |   |   |   |   |   communityname = Lowellcity : 0 (0/0)
|   |   |   |   |   |   |   |   |   |   communityname = BatonRougecity : 0 (0/0)
|   |   |   |   |   |   |   |   |   |   communityname = Pottsvillecity : 0 (0/0)
|   |   |   |   |   |   |   |   |   |   communityname = Bartowcity : 0 (0/0)
|   |   |   |   |   |   |   |   |   |   communityname = PlantCitycity : 1 (1/0)
|   |   |   |   |   |   |   |   |   |   communityname = SanAngelocity : 0 (0/0)
|   |   |   |   |   |   |   |   |   |   communityname = Fayettevillecity : 0 (0/0)
|   |   |   |   |   |   |   |   |   |   communityname = Wadsworthcity : 0 (0/0)
|   |   |   |   |   |   |   |   |   |   communityname = Cumberlandtown : 0 (0/0)
|   |   |   |   |   |   |   |   |   |   communityname = LakeCitycity : 0 (0/0)
|   |   |   |   |   |   |   |   |   |   communityname = Passaiccity : 0 (0/0)
|   |   |   |   |   |   |   |   |   |   communityname = Lafayettecity : 0 (0/0)
|   |   |   |   |   |   |   |   |   |   communityname = Clearwatercity : 0 (0/0)
|   |   |   |   |   |   |   |   |   |   communityname = Owassocity : 0 (0/0)
|   |   |   |   |   |   |   |   |   |   communityname = Rollacity : 0 (0/0)
|   |   |   |   |   |   |   |   |   |   communityname = Branfordtown : 0 (0/0)
|   |   |   |   |   |   |   |   |   |   communityname = Braintreetown : 0 (0/0)
|   |   |   |   |   |   |   |   |   |   communityname = Dedhamtown : 0 (0/0)
|   |   |   |   |   |   |   |   |   |   communityname = Springfieldtownship : 0 (0/0)
|   |   |   |   |   |   |   |   |   |   communityname = SanDimascity : 0 (0/0)
|   |   |   |   |   |   |   |   |   |   communityname = Blacksburgtown : 0 (0/0)
|   |   |   |   |   |   |   |   |   |   communityname = Weatherfordcity : 0 (0/0)
|   |   |   |   |   |   |   |   |   |   communityname = Salisburycity : 0 (0/0)
|   |   |   |   |   |   |   |   |   |   communityname = Newarkcity : 0 (0/0)
|   |   |   |   |   |   |   |   |   |   communityname = Huntingtoncity : 0 (0/0)
|   |   |   |   |   |   |   |   |   |   communityname = Stroudtownship : 0 (0/0)
|   |   |   |   |   |   |   |   |   |   communityname = Wabashcity : 0 (0/0)
|   |   |   |   |   |   |   |   |   |   communityname = Edinburgcity : 0 (0/0)
|   |   |   |   |   |   |   |   |   |   communityname = Lynncity : 0 (0/0)
|   |   |   |   |   |   |   |   |   |   communityname = Woodbridgetownship : 0 (0/0)
|   |   |   |   |   |   |   |   |   |   communityname = Hampdentownship : 0 (0/0)
|   |   |   |   |   |   |   |   |   |   communityname = JerseyCitycity : 0 (0/0)
|   |   |   |   |   |   |   |   |   |   communityname = PortAngelescity : 0 (0/0)
|   |   |   |   |   |   |   |   |   |   communityname = TheVillagecity : 0 (0/0)
|   |   |   |   |   |   |   |   |   |   communityname = Sanduskycity : 0 (0/0)
|   |   |   |   |   |   |   |   |   |   communityname = SilverCitytown : 0 (0/0)
|   |   |   |   |   |   |   |   |   |   communityname = Taylorcity : 0 (0/0)
|   |   |   |   |   |   |   |   |   |   communityname = BerkeleyHeightstownship : 0 (0/0)
|   |   |   |   |   |   |   |   |   |   communityname = Manchestertown : 0 (0/0)
|   |   |   |   |   |   |   |   |   |   communityname = Greensborocity : 0 (0/0)
|   |   |   |   |   |   |   |   |   |   communityname = CoralSpringscity : 0 (0/0)
|   |   |   |   |   |   |   |   |   |   communityname = Scherervilletown : 0 (0/0)
|   |   |   |   |   |   |   |   |   |   communityname = NetherProvidencetownship : 0 (0/0)
|   |   |   |   |   |   |   |   |   |   communityname = NorthRidgevillecity : 0 (0/0)
|   |   |   |   |   |   |   |   |   |   communityname = Dovertown : 0 (0/0)
|   |   |   |   |   |   |   |   |   |   communityname = Marlboroughcity : 0 (0/0)
|   |   |   |   |   |   |   |   |   |   communityname = Athenscity : 0 (0/0)
|   |   |   |   |   |   |   |   |   |   communityname = Wataugacity : 0 (0/0)
|   |   |   |   |   |   |   |   |   |   communityname = NorthOgdencity : 0 (0/0)
|   |   |   |   |   |   |   |   |   |   communityname = NorthReadingtown : 0 (0/0)
|   |   |   |   |   |   |   |   |   |   communityname = Colchestertown : 0 (0/0)
|   |   |   |   |   |   |   |   |   |   communityname = Savannahcity : 0 (0/0)
|   |   |   |   |   |   |   |   |   |   communityname = Reddingcity : 0 (0/0)
|   |   |   |   |   |   |   |   |   |   communityname = Lexingtoncity : 0 (0/0)
|   |   |   |   |   |   |   |   |   |   communityname = NorthLauderdalecity : 0 (0/0)
|   |   |   |   |   |   |   |   |   |   communityname = LittleFallstownship : 0 (0/0)
|   |   |   |   |   |   |   |   |   |   communityname = LakeStationcity : 0 (0/0)
|   |   |   |   |   |   |   |   |   |   communityname = Ephrataborough : 0 (0/0)
|   |   |   |   |   |   |   |   |   |   communityname = Eugenecity : 0 (0/0)
|   |   |   |   |   |   |   |   |   |   communityname = Torrancecity : 0 (0/0)
|   |   |   |   |   |   |   |   |   |   communityname = VanWertcity : 0 (0/0)
|   |   |   |   |   |   |   |   |   |   communityname = Melrosecity : 0 (0/0)
|   |   |   |   |   |   |   |   |   |   communityname = Clemsoncity : 0 (0/0)
|   |   |   |   |   |   |   |   |   |   communityname = Hyattsvillecity : 0 (0/0)
|   |   |   |   |   |   |   |   |   |   communityname = Viennacity : 0 (0/0)
|   |   |   |   |   |   |   |   |   |   communityname = OaklandParkcity : 0 (0/0)
|   |   |   |   |   |   |   |   |   |   communityname = Rutherfordborough : 0 (0/0)
|   |   |   |   |   |   |   |   |   |   communityname = Mansfieldcity : 0 (0/0)
|   |   |   |   |   |   |   |   |   |   communityname = Lodicity : 0 (0/0)
|   |   |   |   |   |   |   |   |   |   communityname = RoundRockcity : 0 (0/0)
|   |   |   |   |   |   |   |   |   |   communityname = SpanishForkcity : 0 (0/0)
|   |   |   |   |   |   |   |   |   |   communityname = Danvillecity : 0 (0/0)
|   |   |   |   |   |   |   |   |   |   communityname = SouthPortlandcity : 0 (0/0)
|   |   |   |   |   |   |   |   |   |   communityname = Watertowncity : 0 (0/0)
|   |   |   |   |   |   |   |   |   |   communityname = Peekskillcity : 0 (0/0)
|   |   |   |   |   |   |   |   |   |   communityname = Lancastercity : 0 (0/0)
|   |   |   |   |   |   |   |   |   |   communityname = Amherstcity : 0 (0/0)
|   |   |   |   |   |   |   |   |   |   communityname = FondduLaccity : 0 (0/0)
|   |   |   |   |   |   |   |   |   |   communityname = Sheffieldcity : 0 (0/0)
|   |   |   |   |   |   |   |   |   |   communityname = Pariscity : 0 (0/0)
|   |   |   |   |   |   |   |   |   |   communityname = Pawtucketcity : 0 (0/0)
|   |   |   |   |   |   |   |   |   |   communityname = Newberrytown : 0 (0/0)
|   |   |   |   |   |   |   |   |   |   communityname = Decaturcity : 1 (1/0)
|   |   |   |   |   |   |   |   |   |   communityname = FortMadisoncity : 0 (0/0)
|   |   |   |   |   |   |   |   |   |   communityname = Logantownship : 0 (0/0)
|   |   |   |   |   |   |   |   |   |   communityname = Wenatcheecity : 0 (0/0)
|   |   |   |   |   |   |   |   |   |   communityname = NewHaventown : 0 (0/0)
|   |   |   |   |   |   |   |   |   |   communityname = Dracuttown : 0 (0/0)
|   |   |   |   |   |   |   |   |   |   communityname = Enniscity : 0 (0/0)
|   |   |   |   |   |   |   |   |   |   communityname = Marinacity : 0 (0/0)
|   |   |   |   |   |   |   |   |   |   communityname = Caledoniatown : 0 (0/0)
|   |   |   |   |   |   |   |   |   |   communityname = Westfieldcity : 0 (0/0)
|   |   |   |   |   |   |   |   |   |   communityname = Andovertown : 0 (0/0)
|   |   |   |   |   |   |   |   |   |   communityname = Visaliacity : 0 (0/0)
|   |   |   |   |   |   |   |   |   |   communityname = ElMontecity : 0 (0/0)
|   |   |   |   |   |   |   |   |   |   communityname = Xeniacity : 0 (0/0)
|   |   |   |   |   |   |   |   |   |   communityname = Napacity : 0 (0/0)
|   |   |   |   |   |   |   |   |   |   communityname = Bellflowercity : 0 (0/0)
|   |   |   |   |   |   |   |   |   |   communityname = NewPortRicheycity : 0 (0/0)
|   |   |   |   |   |   |   |   |   |   communityname = Spartanburgcity : 0 (0/0)
|   |   |   |   |   |   |   |   |   |   communityname = LaCrossecity : 0 (0/0)
|   |   |   |   |   |   |   |   |   |   communityname = Charlottecity : 0 (0/0)
|   |   |   |   |   |   |   |   |   |   communityname = Lakelandcity : 0 (0/0)
|   |   |   |   |   |   |   |   |   |   communityname = Carmelcity : 0 (0/0)
|   |   |   |   |   |   |   |   |   |   communityname = Somervilleborough : 0 (0/0)
|   |   |   |   |   |   |   |   |   |   communityname = Hamptontownship : 0 (0/0)
|   |   |   |   |   |   |   |   |   |   communityname = NorthCharlestoncity : 0 (0/0)
|   |   |   |   |   |   |   |   |   |   communityname = PoplarBluffcity : 0 (0/0)
|   |   |   |   |   |   |   |   |   |   communityname = EastLampetertownship : 0 (0/0)
|   |   |   |   |   |   |   |   |   |   communityname = Clarksburgcity : 0 (0/0)
|   |   |   |   |   |   |   |   |   |   communityname = Pecoscity : 0 (0/0)
|   |   |   |   |   |   |   |   |   |   communityname = LaPortecity : 0 (0/0)
|   |   |   |   |   |   |   |   |   |   communityname = WinterHavencity : 0 (0/0)
|   |   |   |   |   |   |   |   |   |   communityname = Richmondcity : 0 (0/0)
|   |   |   |   |   |   |   |   |   |   communityname = Cheshiretown : 0 (0/0)
|   |   |   |   |   |   |   |   |   |   communityname = Coventrytown : 0 (0/0)
|   |   |   |   |   |   |   |   |   |   communityname = OakRidgecity : 0 (0/0)
|   |   |   |   |   |   |   |   |   |   communityname = Montgomerycity : 0 (0/0)
|   |   |   |   |   |   |   |   |   |   communityname = Overlandcity : 0 (0/0)
|   |   |   |   |   |   |   |   |   |   communityname = Maryvillecity : 0 (0/0)
|   |   |   |   |   |   |   |   |   |   communityname = Greenfieldtown : 0 (0/0)
|   |   |   |   |   |   |   |   |   |   communityname = Stoughtontown : 0 (0/0)
|   |   |   |   |   |   |   |   |   |   communityname = Kingsportcity : 0 (0/0)
|   |   |   |   |   |   |   |   |   |   communityname = WiltonManorscity : 0 (0/0)
|   |   |   |   |   |   |   |   |   |   communityname = MichiganCitycity : 0 (0/0)
|   |   |   |   |   |   |   |   |   |   communityname = EastBridgewatertown : 0 (0/0)
|   |   |   |   |   |   |   |   |   |   communityname = Pittsburgcity : 0 (1/0)
|   |   |   |   |   |   |   |   |   |   communityname = PhenixCitycity : 0 (0/0)
|   |   |   |   |   |   |   |   |   |   communityname = Stratfordtown : 0 (0/0)
|   |   |   |   |   |   |   |   |   |   communityname = Plainfieldtown : 0 (0/0)
|   |   |   |   |   |   |   |   |   |   communityname = Bismarckcity : 0 (0/0)
|   |   |   |   |   |   |   |   |   |   communityname = Stephenvillecity : 0 (0/0)
|   |   |   |   |   |   |   |   |   |   communityname = Dennistown : 0 (0/0)
|   |   |   |   |   |   |   |   |   |   communityname = Dunmoreborough : 0 (0/0)
|   |   |   |   |   |   |   |   |   |   communityname = Englewoodcity : 0 (0/0)
|   |   |   |   |   |   |   |   |   |   communityname = Carteretborough : 0 (0/0)
|   |   |   |   |   |   |   |   |   |   communityname = LaMarquecity : 0 (1/0)
|   |   |   |   |   |   |   |   |   |   communityname = LongBranchcity : 0 (0/0)
|   |   |   |   |   |   |   |   |   |   communityname = Bedfordtown : 0 (0/0)
|   |   |   |   |   |   |   |   |   |   communityname = Greenvillecity : 1 (1/0)
|   |   |   |   |   |   |   |   |   |   communityname = Westporttown : 0 (0/0)
|   |   |   |   |   |   |   |   |   |   communityname = Lowertownship : 0 (0/0)
|   |   |   |   |   |   |   |   |   |   communityname = Williamsburgcity : 0 (0/0)
|   |   |   |   |   |   |   |   |   |   communityname = UpperAllentownship : 0 (0/0)
|   |   |   |   |   |   |   |   |   |   communityname = Allentowncity : 0 (0/0)
|   |   |   |   |   |   |   |   |   |   communityname = Libertytownship : 0 (0/0)
|   |   |   |   |   |   |   |   |   |   communityname = Sayrevilleborough : 0 (0/0)
|   |   |   |   |   |   |   |   |   |   communityname = LongBeachcity : 0 (0/0)
|   |   |   |   |   |   |   |   |   |   communityname = Montvilletownship : 0 (0/0)
|   |   |   |   |   |   |   |   |   |   communityname = Fillmorecity : 0 (0/0)
|   |   |   |   |   |   |   |   |   |   communityname = Vancouvercity : 0 (0/0)
|   |   |   |   |   |   |   |   |   |   communityname = Delawarecity : 0 (0/0)
|   |   |   |   |   |   |   |   |   |   communityname = FortPaynecity : 0 (0/0)
|   |   |   |   |   |   |   |   |   |   communityname = Northportcity : 0 (0/0)
|   |   |   |   |   |   |   |   |   |   communityname = Daltoncity : 0 (0/0)
|   |   |   |   |   |   |   |   |   |   communityname = Bethanycity : 0 (0/0)
|   |   |   |   |   |   |   |   |   |   communityname = BeverlyHillscity : 0 (0/0)
|   |   |   |   |   |   |   |   |   |   communityname = Baytowncity : 0 (0/0)
|   |   |   |   |   |   |   |   |   |   communityname = Zanesvillecity : 0 (0/0)
|   |   |   |   |   |   |   |   |   |   communityname = MountLaureltownship : 0 (0/0)
|   |   |   |   |   |   |   |   |   |   communityname = Belmonttown : 0 (0/0)
|   |   |   |   |   |   |   |   |   |   communityname = Arnoldcity : 0 (0/0)
|   |   |   |   |   |   |   |   |   |   communityname = Gloucestertownship : 0 (0/0)
|   |   |   |   |   |   |   |   |   |   communityname = Bayonnecity : 0 (0/0)
|   |   |   |   |   |   |   |   |   |   communityname = Cantoncity : 0 (0/0)
|   |   |   |   |   |   |   |   |   |   communityname = NorthPlainfieldborough : 0 (0/0)
|   |   |   |   |   |   |   |   |   |   communityname = NiagaraFallscity : 0 (0/0)
|   |   |   |   |   |   |   |   |   |   communityname = Monroecity : 0 (0/0)
|   |   |   |   |   |   |   |   |   |   communityname = Sangercity : 0 (0/0)
|   |   |   |   |   |   |   |   |   |   communityname = Brooklyncity : 0 (0/0)
|   |   |   |   |   |   |   |   |   |   communityname = Ukiahcity : 0 (0/0)
|   |   |   |   |   |   |   |   |   |   communityname = Georgetowncity : 0 (0/0)
|   |   |   |   |   |   |   |   |   |   communityname = Duncancity : 0 (0/0)
|   |   |   |   |   |   |   |   |   |   communityname = Biddefordcity : 0 (0/0)
|   |   |   |   |   |   |   |   |   |   communityname = Killeencity : 0 (0/0)
|   |   |   |   |   |   |   |   |   |   communityname = Antiochcity : 0 (0/0)
|   |   |   |   |   |   |   |   |   |   communityname = Nogalescity : 0 (0/0)
|   |   |   |   |   |   |   |   |   |   communityname = Oskaloosacity : 0 (0/0)
|   |   |   |   |   |   |   |   |   |   communityname = Hendersonvillecity : 0 (0/0)
|   |   |   |   |   |   |   |   |   |   communityname = Glassboroborough : 0 (0/0)
|   |   |   |   |   |   |   |   |   |   communityname = SanGabrielcity : 0 (0/0)
|   |   |   |   |   |   |   |   |   |   communityname = HuberHeightscity : 0 (0/0)
|   |   |   |   |   |   |   |   |   |   communityname = Hurstcity : 0 (0/0)
|   |   |   |   |   |   |   |   |   |   communityname = Westfieldtown : 0 (0/0)
|   |   |   |   |   |   |   |   |   |   communityname = AtlanticCitycity : 0 (0/0)
|   |   |   |   |   |   |   |   |   |   communityname = Palestinecity : 1 (1/0)
|   |   |   |   |   |   |   |   |   |   communityname = Haverfordtownship : 0 (0/0)
|   |   |   |   |   |   |   |   |   |   communityname = Provocity : 0 (0/0)
|   |   |   |   |   |   |   |   |   |   communityname = Westervillecity : 0 (0/0)
|   |   |   |   |   |   |   |   |   |   communityname = WestHaventown : 0 (0/0)
|   |   |   |   |   |   |   |   |   |   communityname = Portlandcity : 0 (0/0)
|   |   |   |   |   |   |   |   |   |   communityname = Dovertownship : 0 (0/0)
|   |   |   |   |   |   |   |   |   |   communityname = Perkinstownship : 0 (0/0)
|   |   |   |   |   |   |   |   |   |   communityname = Harvardtown : 0 (0/0)
|   |   |   |   |   |   |   |   |   |   communityname = NorthTonawandacity : 0 (0/0)
|   |   |   |   |   |   |   |   |   |   communityname = Menashacity : 0 (0/0)
|   |   |   |   |   |   |   |   |   |   communityname = GreenBaycity : 0 (0/0)
|   |   |   |   |   |   |   |   |   |   communityname = Seattlecity : 0 (0/0)
|   |   |   |   |   |   |   |   |   |   communityname = Greeleycity : 0 (0/0)
|   |   |   |   |   |   |   |   |   |   communityname = HasbrouckHeightsborough : 0 (0/0)
|   |   |   |   |   |   |   |   |   |   communityname = Pullmancity : 0 (0/0)
|   |   |   |   |   |   |   |   |   |   communityname = Cromwelltown : 0 (0/0)
|   |   |   |   |   |   |   |   |   |   communityname = Woostercity : 0 (0/0)
|   |   |   |   |   |   |   |   |   |   communityname = Aberdeencity : 0 (0/0)
|   |   |   |   |   |   |   |   |   |   communityname = Madisontownship : 0 (0/0)
|   |   |   |   |   |   |   |   |   |   communityname = Oremcity : 0 (0/0)
|   |   |   |   |   |   |   |   |   |   communityname = Genevacity : 0 (0/0)
|   |   |   |   |   |   |   |   |   |   communityname = Peabodycity : 0 (0/0)
|   |   |   |   |   |   |   |   |   |   communityname = SaddleBrooktownship : 0 (0/0)
|   |   |   |   |   |   |   |   |   |   communityname = Logansportcity : 0 (0/0)
|   |   |   |   |   |   |   |   |   |   communityname = Mustangcity : 0 (0/0)
|   |   |   |   |   |   |   |   |   |   communityname = Enterprisecity : 0 (0/0)
|   |   |   |   |   |   |   |   |   |   communityname = Fergusoncity : 0 (0/0)
|   |   |   |   |   |   |   |   |   |   communityname = Birminghamcity : 0 (0/0)
|   |   |   |   |   |   |   |   |   |   communityname = Newbergcity : 0 (0/0)
|   |   |   |   |   |   |   |   |   |   communityname = Keizercity : 0 (0/0)
|   |   |   |   |   |   |   |   |   |   communityname = SouthBendcity : 0 (0/0)
|   |   |   |   |   |   |   |   |   |   communityname = Eriecity : 0 (0/0)
|   |   |   |   |   |   |   |   |   |   communityname = Uvaldecity : 0 (0/0)
|   |   |   |   |   |   |   |   |   |   communityname = CollegeStationcity : 0 (0/0)
|   |   |   |   |   |   |   |   |   |   communityname = Florissantcity : 0 (0/0)
|   |   |   |   |   |   |   |   |   |   communityname = Texarkanacity : 0 (0/0)
|   |   |   |   |   |   |   |   |   |   communityname = Smyrnacity : 0 (0/0)
|   |   |   |   |   |   |   |   |   |   communityname = SunPrairiecity : 0 (0/0)
|   |   |   |   |   |   |   |   |   |   communityname = Hudsontown : 0 (0/0)
|   |   |   |   |   |   |   |   |   |   communityname = Gainesvillecity : 0 (0/0)
|   |   |   |   |   |   |   |   |   |   communityname = LaCanadaFlintridgecity : 0 (0/0)
|   |   |   |   |   |   |   |   |   |   communityname = Glastonburytown : 0 (0/0)
|   |   |   |   |   |   |   |   |   |   communityname = Tooelecity : 0 (0/0)
|   |   |   |   |   |   |   |   |   |   communityname = NorthAugustacity : 0 (0/0)
|   |   |   |   |   |   |   |   |   |   communityname = Readingcity : 0 (0/0)
|   |   |   |   |   |   |   |   |   |   communityname = Colliervilletown : 0 (0/0)
|   |   |   |   |   |   |   |   |   |   communityname = Cranfordtownship : 0 (0/0)
|   |   |   |   |   |   |   |   |   |   communityname = Durangocity : 0 (0/0)
|   |   |   |   |   |   |   |   |   |   communityname = Elizabethcity : 0 (0/0)
|   |   |   |   |   |   |   |   |   |   communityname = Brenhamcity : 0 (0/0)
|   |   |   |   |   |   |   |   |   |   communityname = Chinocity : 0 (0/0)
|   |   |   |   |   |   |   |   |   |   communityname = Kilgorecity : 0 (0/0)
|   |   |   |   |   |   |   |   |   |   communityname = MorenoValleycity : 0 (0/0)
|   |   |   |   |   |   |   |   |   |   communityname = Sylvaniacity : 0 (0/0)
|   |   |   |   |   |   |   |   |   |   communityname = SanMarinocity : 0 (0/0)
|   |   |   |   |   |   |   |   |   |   communityname = OakHarborcity : 0 (0/0)
|   |   |   |   |   |   |   |   |   |   communityname = Conroecity : 0 (0/0)
|   |   |   |   |   |   |   |   |   |   communityname = Colleyvillecity : 0 (0/0)
|   |   |   |   |   |   |   |   |   |   communityname = Lewistoncity : 0 (0/0)
|   |   |   |   |   |   |   |   |   |   communityname = Brownsvillecity : 1 (1/0)
|   |   |   |   |   |   |   |   |   |   communityname = Phoenixvilleborough : 0 (0/0)
|   |   |   |   |   |   |   |   |   |   communityname = Fredericksburgcity : 0 (0/0)
|   |   |   |   |   |   |   |   |   |   communityname = Hallandalecity : 0 (0/0)
|   |   |   |   |   |   |   |   |   |   communityname = Milwaukeecity : 0 (0/0)
|   |   |   |   |   |   |   |   |   |   communityname = Pinevillecity : 0 (0/0)
|   |   |   |   |   |   |   |   |   |   communityname = GalenaParkcity : 0 (0/0)
|   |   |   |   |   |   |   |   |   |   communityname = LosBanoscity : 0 (0/0)
|   |   |   |   |   |   |   |   |   |   communityname = Avondalecity : 0 (0/0)
|   |   |   |   |   |   |   |   |   |   communityname = ColumbiaHeightscity : 0 (0/0)
|   |   |   |   |   |   |   |   |   |   communityname = CommerceCitycity : 0 (0/0)
|   |   |   |   |   |   |   |   |   |   communityname = RockyMountcity : 0 (0/0)
|   |   |   |   |   |   |   |   |   |   communityname = MenloParkcity : 0 (0/0)
|   |   |   |   |   |   |   |   |   |   communityname = FortPiercecity : 0 (0/0)
|   |   |   |   |   |   |   |   |   |   communityname = Middletowncity : 0 (0/0)
|   |   |   |   |   |   |   |   |   |   communityname = Morgantoncity : 0 (0/0)
|   |   |   |   |   |   |   |   |   |   communityname = Baltimorecity : 0 (0/0)
|   |   |   |   |   |   |   |   |   |   communityname = Gallowaytownship : 0 (0/0)
|   |   |   |   |   |   |   |   |   |   communityname = Sebastiancity : 0 (0/0)
|   |   |   |   |   |   |   |   |   |   communityname = Greenfieldcity : 0 (0/0)
|   |   |   |   |   |   |   |   |   |   communityname = Fairviewborough : 0 (0/0)
|   |   |   |   |   |   |   |   |   |   communityname = Sandwichtown : 0 (0/0)
|   |   |   |   |   |   |   |   |   |   communityname = Borgercity : 0 (0/0)
|   |   |   |   |   |   |   |   |   |   communityname = Annistoncity : 0 (0/0)
|   |   |   |   |   |   |   |   |   |   communityname = Everettcity : 0 (0/0)
|   |   |   |   |   |   |   |   |   |   communityname = NorthArlingtonborough : 0 (0/0)
|   |   |   |   |   |   |   |   |   |   communityname = Covingtoncity : 0 (0/0)
|   |   |   |   |   |   |   |   |   |   communityname = Springtownship : 0 (0/0)
|   |   |   |   |   |   |   |   |   |   communityname = WhiteSettlementcity : 0 (0/0)
|   |   |   |   |   |   |   |   |   |   communityname = Cranberrytownship : 0 (0/0)
|   |   |   |   |   |   |   |   |   |   communityname = Andersoncity : 0 (0/0)
|   |   |   |   |   |   |   |   |   |   communityname = NewBraunfelscity : 0 (0/0)
|   |   |   |   |   |   |   |   |   |   communityname = Oceansidecity : 0 (0/0)
|   |   |   |   |   |   |   |   |   |   communityname = Westerlytown : 0 (0/0)
|   |   |   |   |   |   |   |   |   |   communityname = Sacramentocity : 0 (0/0)
|   |   |   |   |   |   |   |   |   |   communityname = BrownDeervillage : 0 (0/0)
|   |   |   |   |   |   |   |   |   |   communityname = Meridiancity : 0 (0/0)
|   |   |   |   |   |   |   |   |   |   communityname = Windhamtown : 0 (0/0)
|   |   |   |   |   |   |   |   |   |   communityname = WestPatersonborough : 0 (0/0)
|   |   |   |   |   |   |   |   |   |   communityname = Romecity : 0 (0/0)
|   |   |   |   |   |   |   |   |   |   communityname = RockyHilltown : 0 (0/0)
|   |   |   |   |   |   |   |   |   |   communityname = SouthSanFranciscodivision : 0 (0/0)
|   |   |   |   |   |   |   |   |   |   communityname = GrandJunctioncity : 0 (0/0)
|   |   |   |   |   |   |   |   |   |   communityname = Longwoodcity : 0 (0/0)
|   |   |   |   |   |   |   |   |   |   communityname = Columbiacity : 0 (0/0)
|   |   |   |   |   |   |   |   |   |   communityname = Paragouldcity : 0 (0/0)
|   |   |   |   |   |   |   |   |   |   communityname = Vandaliacity : 0 (0/0)
|   |   |   |   |   |   |   |   |   |   communityname = Galvestoncity : 0 (0/0)
|   |   |   |   |   |   |   |   |   |   communityname = Tullahomacity : 0 (0/0)
|   |   |   |   |   |   |   |   |   |   communityname = Ozarkcity : 1 (1/0)
|   |   |   |   |   |   |   |   |   |   communityname = Irvingtontownship : 0 (0/0)
|   |   |   |   |   |   |   |   |   |   communityname = Ridgewoodvillage : 0 (0/0)
|   |   |   |   |   |   |   |   |   |   communityname = Centervillecity : 0 (0/0)
|   |   |   |   |   |   |   |   |   |   communityname = Manitowoccity : 0 (0/0)
|   |   |   |   |   |   |   |   |   |   communityname = Kannapoliscity : 0 (0/0)
|   |   |   |   |   |   |   |   |   |   communityname = Wacocity : 0 (0/0)
|   |   |   |   |   |   |   |   |   |   communityname = Springvillecity : 0 (0/0)
|   |   |   |   |   |   |   |   |   |   communityname = Raytowncity : 0 (0/0)
|   |   |   |   |   |   |   |   |   |   communityname = Homesteadcity : 0 (0/0)
|   |   |   |   |   |   |   |   |   |   communityname = FrontRoyaltown : 0 (0/0)
|   |   |   |   |   |   |   |   |   |   communityname = Londonderrytown : 0 (0/0)
|   |   |   |   |   |   |   |   |   |   communityname = Beavercreekcity : 0 (0/0)
|   |   |   |   |   |   |   |   |   |   communityname = Commercecity : 0 (0/0)
|   |   |   |   |   |   |   |   |   |   communityname = Plymouthtown : 0 (0/0)
|   |   |   |   |   |   |   |   |   |   communityname = Spokanecity : 0 (0/0)
|   |   |   |   |   |   |   |   |   |   communityname = CanonCitycity : 0 (0/0)
|   |   |   |   |   |   |   |   |   |   communityname = SouthOrangeVillagetownship : 0 (0/0)
|   |   |   |   |   |   |   |   |   |   communityname = Millbraecity : 0 (0/0)
|   |   |   |   |   |   |   |   |   |   communityname = GarfieldHeightscity : 0 (0/0)
|   |   |   |   |   |   |   |   |   |   communityname = Bellmawrborough : 0 (0/0)
|   |   |   |   |   |   |   |   |   |   communityname = Sandycity : 0 (0/0)
|   |   |   |   |   |   |   |   |   |   communityname = Hickorycity : 0 (0/0)
|   |   |   |   |   |   |   |   |   |   communityname = Dublincity : 0 (0/0)
|   |   |   |   |   |   |   |   |   |   communityname = Beloitcity : 0 (0/0)
|   |   |   |   |   |   |   |   |   |   communityname = MontereyParkcity : 0 (0/0)
|   |   |   |   |   |   |   |   |   |   communityname = Marshfieldcity : 0 (0/0)
|   |   |   |   |   |   |   |   |   |   communityname = Shelbyvillecity : 0 (0/0)
|   |   |   |   |   |   |   |   |   |   communityname = Edgewatercity : 0 (0/0)
|   |   |   |   |   |   |   |   |   |   communityname = Temeculacity : 0 (0/0)
|   |   |   |   |   |   |   |   |   |   communityname = Paducahcity : 0 (0/0)
|   |   |   |   |   |   |   |   |   |   communityname = Eulesscity : 0 (0/0)
|   |   |   |   |   |   |   |   |   |   communityname = Yorktowntown : 0 (0/0)
|   |   |   |   |   |   |   |   |   |   communityname = Austincity : 0 (0/0)
|   |   |   |   |   |   |   |   |   |   communityname = Richlandcity : 0 (0/0)
|   |   |   |   |   |   |   |   |   |   communityname = Fairborncity : 0 (0/0)
|   |   |   |   |   |   |   |   |   |   communityname = Morristowncity : 0 (0/0)
|   |   |   |   |   |   |   |   |   |   communityname = Pennsvilletownship : 0 (0/0)
|   |   |   |   |   |   |   |   |   |   communityname = Oaklandborough : 0 (0/0)
|   |   |   |   |   |   |   |   |   |   communityname = Vicksburgcity : 0 (0/0)
|   |   |   |   |   |   |   |   |   |   communityname = Sudburytown : 0 (0/0)
|   |   |   |   |   |   |   |   |   |   communityname = Waynetownship : 0 (0/0)
|   |   |   |   |   |   |   |   |   |   communityname = Pascocity : 0 (0/0)
|   |   |   |   |   |   |   |   |   |   communityname = Demingcity : 0 (0/0)
|   |   |   |   |   |   |   |   |   |   communityname = Norwalktown : 0 (0/0)
|   |   |   |   |   |   |   |   |   |   communityname = Ludlowtown : 0 (0/0)
|   |   |   |   |   |   |   |   |   |   communityname = SanBernardinocity : 0 (0/0)
|   |   |   |   |   |   |   |   |   |   communityname = Woburncity : 0 (0/0)
|   |   |   |   |   |   |   |   |   |   communityname = Jonesborocity : 0 (0/0)
|   |   |   |   |   |   |   |   |   |   communityname = Nutleytownship : 0 (0/0)
|   |   |   |   |   |   |   |   |   |   communityname = RiverFallscity : 0 (0/0)
|   |   |   |   |   |   |   |   |   |   communityname = MidwestCitycity : 0 (0/0)
|   |   |   |   |   |   |   |   |   |   communityname = Knoxvillecity : 0 (0/0)
|   |   |   |   |   |   |   |   |   |   communityname = Loraincity : 0 (0/0)
|   |   |   |   |   |   |   |   |   |   communityname = Beavertoncity : 0 (0/0)
|   |   |   |   |   |   |   |   |   |   communityname = Freeportcity : 0 (0/0)
|   |   |   |   |   |   |   |   |   |   communityname = PresqueIslecity : 0 (0/0)
|   |   |   |   |   |   |   |   |   |   communityname = Moorecity : 0 (0/0)
|   |   |   |   |   |   |   |   |   |   communityname = Kenoshacity : 0 (0/0)
|   |   |   |   |   |   |   |   |   |   communityname = Chillicothecity : 0 (0/0)
|   |   |   |   |   |   |   |   |   |   communityname = SantaRosacity : 0 (0/0)
|   |   |   |   |   |   |   |   |   |   communityname = Bartlesvillecity : 0 (0/0)
|   |   |   |   |   |   |   |   |   |   communityname = WestWhitelandtownship : 0 (0/0)
|   |   |   |   |   |   |   |   |   |   communityname = Bellevilletownship : 0 (0/0)
|   |   |   |   |   |   |   |   |   |   communityname = Russellvillecity : 0 (0/0)
|   |   |   |   |   |   |   |   |   |   communityname = Brightoncity : 0 (0/0)
|   |   |   |   |   |   |   |   |   |   communityname = Spencercity : 0 (0/0)
|   |   |   |   |   |   |   |   |   |   communityname = PembrokePinescity : 0 (0/0)
|   |   |   |   |   |   |   |   |   |   communityname = Leominstercity : 0 (0/0)
|   |   |   |   |   |   |   |   |   |   communityname = Columbuscity : 0 (0/0)
|   |   |   |   |   |   |   |   |   |   communityname = Stuttgartcity : 0 (0/0)
|   |   |   |   |   |   |   |   |   |   communityname = Albuquerquecity : 0 (0/0)
|   |   |   |   |   |   |   |   |   |   communityname = Americuscity : 0 (0/0)
|   |   |   |   |   |   |   |   |   |   communityname = Fultoncity : 0 (0/0)
|   |   |   |   |   |   |   |   |   |   communityname = PicoRiveracity : 0 (0/0)
|   |   |   |   |   |   |   |   |   |   communityname = Warrentown : 0 (0/0)
|   |   |   |   |   |   |   |   |   |   communityname = Westwoodborough : 0 (0/0)
|   |   |   |   |   |   |   |   |   |   communityname = Lovelandcity : 0 (0/0)
|   |   |   |   |   |   |   |   |   |   communityname = Toledocity : 0 (0/0)
|   |   |   |   |   |   |   |   |   |   communityname = MorganHillcity : 0 (0/0)
|   |   |   |   |   |   |   |   |   |   communityname = Nanticokecity : 0 (0/0)
|   |   |   |   |   |   |   |   |   |   communityname = Hanahancity : 0 (0/0)
|   |   |   |   |   |   |   |   |   |   communityname = WestBendcity : 0 (0/0)
|   |   |   |   |   |   |   |   |   |   communityname = Burlingtontownship : 0 (0/0)
|   |   |   |   |   |   |   |   |   |   communityname = Lyndhursttownship : 0 (0/0)
|   |   |   |   |   |   |   |   |   |   communityname = NewBerncity : 0 (0/0)
|   |   |   |   |   |   |   |   |   |   communityname = Bensalemtownship : 0 (0/0)
|   |   |   |   |   |   |   |   |   |   communityname = Cypresscity : 0 (0/0)
|   |   |   |   |   |   |   |   |   |   communityname = Lancastertownship : 0 (0/0)
|   |   |   |   |   |   |   |   |   |   communityname = Cantontown : 0 (0/0)
|   |   |   |   |   |   |   |   |   |   communityname = SantaFeSpringscity : 1 (1/0)
|   |   |   |   |   |   |   |   |   |   communityname = SouthRiverborough : 0 (0/0)
|   |   |   |   |   |   |   |   |   |   communityname = Merrillvilletown : 0 (0/0)
|   |   |   |   |   |   |   |   |   |   communityname = WestDesMoinescity : 0 (0/0)
|   |   |   |   |   |   |   |   |   |   communityname = Cohoescity : 0 (0/0)
|   |   |   |   |   |   |   |   |   |   communityname = Urbandalecity : 0 (0/0)
|   |   |   |   |   |   |   |   |   |   communityname = ForestGrovecity : 0 (0/0)
|   |   |   |   |   |   |   |   |   |   communityname = Carsoncity : 0 (0/0)
|   |   |   |   |   |   |   |   |   |   communityname = Stamfordtown : 0 (0/0)
|   |   |   |   |   |   |   |   |   |   communityname = EastWindsortownship : 0 (0/0)
|   |   |   |   |   |   |   |   |   |   communityname = Kinstoncity : 0 (0/0)
|   |   |   |   |   |   |   |   |   |   communityname = Sanfordtown : 0 (0/0)
|   |   |   |   |   |   |   |   |   |   communityname = Wichitacity : 0 (0/0)
|   |   |   |   |   |   |   |   |   |   communityname = Montereycity : 0 (0/0)
|   |   |   |   |   |   |   |   |   |   communityname = Belmontcity : 0 (0/0)
|   |   |   |   |   |   |   |   |   |   communityname = AsburyParkcity : 0 (0/0)
|   |   |   |   |   |   |   |   |   |   communityname = WestOrangetownship : 0 (0/0)
|   |   |   |   |   |   |   |   |   |   communityname = Florencecity : 1 (1/0)
|   |   |   |   |   |   |   |   |   |   communityname = LosAngelescity : 0 (0/0)
|   |   |   |   |   |   |   |   |   |   communityname = Minotcity : 0 (0/0)
|   |   |   |   |   |   |   |   |   |   communityname = Clevelandcity : 0 (0/0)
|   |   |   |   |   |   |   |   |   |   communityname = CorpusChristicity : 0 (0/0)
|   |   |   |   |   |   |   |   |   |   communityname = Denisoncity : 0 (0/0)
|   |   |   |   |   |   |   |   |   |   communityname = DiamondBarcity : 0 (0/0)
|   |   |   |   |   |   |   |   |   |   communityname = PalmBeachGardenscity : 0 (0/0)
|   |   |   |   |   |   |   |   |   |   communityname = Cranstoncity : 0 (0/0)
|   |   |   |   |   |   |   |   |   |   communityname = Ithacacity : 0 (0/0)
|   |   |   |   |   |   |   |   |   |   communityname = Whitehalltownship : 0 (0/0)
|   |   |   |   |   |   |   |   |   |   communityname = UniversityHeightscity : 0 (0/0)
|   |   |   |   |   |   |   |   |   |   communityname = LowerAllentownship : 0 (0/0)
|   |   |   |   |   |   |   |   |   |   communityname = Readingtown : 0 (0/0)
|   |   |   |   |   |   |   |   |   |   communityname = Ansoniatown : 0 (0/0)
|   |   |   |   |   |   |   |   |   |   communityname = Barnegattownship : 0 (0/0)
|   |   |   |   |   |   |   |   |   |   communityname = CedarGrovetownship : 0 (0/0)
|   |   |   |   |   |   |   |   |   |   communityname = Hannibalcity : 0 (0/0)
|   |   |   |   |   |   |   |   |   |   communityname = Gloversvillecity : 0 (0/0)
|   |   |   |   |   |   |   |   |   |   communityname = CherryHilltownship : 0 (0/0)
|   |   |   |   |   |   |   |   |   |   communityname = Seymourtown : 0 (0/0)
|   |   |   |   |   |   |   |   |   |   communityname = Mercedescity : 0 (0/0)
|   |   |   |   |   |   |   |   |   |   communityname = UpperDarbytownship : 0 (0/0)
|   |   |   |   |   |   |   |   |   |   communityname = Laramiecity : 0 (0/0)
|   |   |   |   |   |   |   |   |   |   communityname = Okmulgeecity : 0 (0/0)
|   |   |   |   |   |   |   |   |   |   communityname = Harrisburgcity : 0 (0/0)
|   |   |   |   |   |   |   |   |   |   communityname = Germantowncity : 0 (0/0)
|   |   |   |   |   |   |   |   |   |   communityname = Middlesexborough : 0 (0/0)
|   |   |   |   |   |   |   |   |   |   communityname = NorthHaventown : 0 (0/0)
|   |   |   |   |   |   |   |   |   |   communityname = Massilloncity : 0 (0/0)
|   |   |   |   |   |   |   |   |   |   communityname = WhitePlainscity : 0 (0/0)
|   |   |   |   |   |   |   |   |   |   communityname = Haverhillcity : 0 (0/0)
|   |   |   |   |   |   |   |   |   |   communityname = Elkhartcity : 0 (0/0)
|   |   |   |   |   |   |   |   |   |   communityname = Troycity : 0 (0/0)
|   |   |   |   |   |   |   |   |   |   communityname = NewYorkcity : 0 (0/0)
|   |   |   |   |   |   |   |   |   |   communityname = Monroviacity : 0 (0/0)
|   |   |   |   |   |   |   |   |   |   communityname = Corningcity : 0 (0/0)
|   |   |   |   |   |   |   |   |   |   communityname = PaloAltocity : 0 (0/0)
|   |   |   |   |   |   |   |   |   |   communityname = Sanfordcity : 1 (1/0)
|   |   |   |   |   |   |   |   |   |   communityname = Erlangercity : 0 (0/0)
|   |   |   |   |   |   |   |   |   |   communityname = Bluefieldcity : 0 (0/0)
|   |   |   |   |   |   |   |   |   |   communityname = Portagecity : 0 (0/0)
|   |   |   |   |   |   |   |   |   |   communityname = Lackawannacity : 0 (0/0)
|   |   |   |   |   |   |   |   |   |   communityname = LowerMakefieldtownship : 0 (0/0)
|   |   |   |   |   |   |   |   |   |   communityname = Uplandcity : 0 (0/0)
|   |   |   |   |   |   |   |   |   |   communityname = Williamsportcity : 0 (0/0)
|   |   |   |   |   |   |   |   |   |   communityname = Independencecity : 0 (0/0)
|   |   |   |   |   |   |   |   |   |   communityname = Salemcity : 0 (0/0)
|   |   |   |   |   |   |   |   |   |   communityname = RedBluffcity : 0 (0/0)
|   |   |   |   |   |   |   |   |   |   communityname = GlensFallscity : 0 (0/0)
|   |   |   |   |   |   |   |   |   |   communityname = Tallmadgecity : 0 (0/0)
|   |   |   |   |   |   |   |   |   |   communityname = RapidCitycity : 0 (0/0)
|   |   |   |   |   |   |   |   |   |   communityname = Gaffneycity : 0 (1/0)
|   |   |   |   |   |   |   |   |   |   communityname = RanchoPalosVerdescity : 0 (0/0)
|   |   |   |   |   |   |   |   |   |   communityname = Carrolltoncity : 0 (0/0)
|   |   |   |   |   |   |   |   |   |   communityname = EauClairecity : 0 (0/0)
|   |   |   |   |   |   |   |   |   |   communityname = Milfordtown : 0 (0/0)
|   |   |   |   |   |   |   |   |   |   communityname = Beverlycity : 0 (0/0)
|   |   |   |   |   |   |   |   |   |   communityname = Mercedcity : 0 (0/0)
|   |   |   |   |   |   |   |   |   |   communityname = Cheyennecity : 0 (0/0)
|   |   |   |   |   |   |   |   |   |   communityname = Staffordtownship : 0 (0/0)
|   |   |   |   |   |   |   |   |   |   communityname = Brunswicktown : 0 (0/0)
|   |   |   |   |   |   |   |   |   |   communityname = Kerrvillecity : 0 (0/0)
|   |   |   |   |   |   |   |   |   |   communityname = Glendalecity : 0 (0/0)
|   |   |   |   |   |   |   |   |   |   communityname = Garycity : 0 (0/0)
|   |   |   |   |   |   |   |   |   |   communityname = Trentoncity : 0 (0/0)
|   |   |   |   |   |   |   |   |   |   communityname = Waynesborocity : 0 (0/0)
|   |   |   |   |   |   |   |   |   |   communityname = MossPointcity : 0 (0/0)
|   |   |   |   |   |   |   |   |   |   communityname = Glasgowcity : 0 (0/0)
|   |   |   |   |   |   |   |   |   |   communityname = Tigardcity : 0 (0/0)
|   |   |   |   |   |   |   |   |   |   communityname = Weslacocity : 0 (0/0)
|   |   |   |   |   |   |   |   |   |   communityname = Brocktoncity : 0 (0/0)
|   |   |   |   |   |   |   |   |   |   communityname = BocaRatoncity : 0 (0/0)
|   |   |   |   |   |   |   |   |   |   communityname = SiouxFallscity : 0 (0/0)
|   |   |   |   |   |   |   |   |   |   communityname = Dinubacity : 0 (0/0)
|   |   |   |   |   |   |   |   |   |   communityname = Hartfordtown : 0 (0/0)
|   |   |   |   |   |   |   |   |   |   communityname = Saralandcity : 0 (0/0)
|   |   |   |   |   |   |   |   |   |   communityname = Bountifulcity : 0 (0/0)
|   |   |   |   |   |   |   |   |   |   communityname = Sharontown : 0 (0/0)
|   |   |   |   |   |   |   |   |   |   communityname = Ocoeecity : 0 (0/0)
|   |   |   |   |   |   |   |   |   |   communityname = Donnacity : 0 (0/0)
|   |   |   |   |   |   |   |   |   |   communityname = RiverEdgeborough : 0 (0/0)
|   |   |   |   |   |   |   |   |   |   communityname = Stantoncity : 0 (0/0)
|   |   |   |   |   |   |   |   |   |   communityname = Hartsellecity : 0 (0/0)
|   |   |   |   |   |   |   |   |   |   communityname = Radfordcity : 0 (0/0)
|   |   |   |   |   |   |   |   |   |   communityname = Breacity : 0 (0/0)
|   |   |   |   |   |   |   |   |   |   communityname = SouthWindsortown : 0 (0/0)
|   |   |   |   |   |   |   |   |   |   communityname = Yorktownship : 0 (0/0)
|   |   |   |   |   |   |   |   |   |   communityname = Rutlandcity : 0 (0/0)
|   |   |   |   |   |   |   |   |   |   communityname = Norwoodtown : 0 (0/0)
|   |   |   |   |   |   |   |   |   |   communityname = Saratogacity : 0 (0/0)
|   |   |   |   |   |   |   |   |   |   communityname = Arcadiacity : 0 (0/0)
|   |   |   |   |   |   |   |   |   |   communityname = SanBenitocity : 0 (0/0)
|   |   |   |   |   |   |   |   |   |   communityname = Ballwincity : 0 (0/0)
|   |   |   |   |   |   |   |   |   |   communityname = Raleighcity : 0 (0/0)
|   |   |   |   |   |   |   |   |   |   communityname = FortWorthcity : 0 (0/0)
|   |   |   |   |   |   |   |   |   |   communityname = GrantsPasscity : 0 (0/0)
|   |   |   |   |   |   |   |   |   |   communityname = RedondoBeachcity : 0 (0/0)
|   |   |   |   |   |   |   |   |   |   communityname = Hueytowncity : 0 (0/0)
|   |   |   |   |   |   |   |   |   |   communityname = Atlantacity : 0 (0/0)
|   |   |   |   |   |   |   |   |   |   communityname = Bellcity : 0 (0/0)
|   |   |   |   |   |   |   |   |   |   communityname = Bostoncity : 0 (0/0)
|   |   |   |   |   |   |   |   |   |   communityname = YubaCitycity : 0 (0/0)
|   |   |   |   |   |   |   |   |   |   communityname = Mantuatownship : 0 (0/0)
|   |   |   |   |   |   |   |   |   |   communityname = WestJordancity : 0 (0/0)
|   |   |   |   |   |   |   |   |   |   communityname = CentralFallscity : 0 (0/0)
|   |   |   |   |   |   |   |   |   |   communityname = Roanokecity : 0 (0/0)
|   |   |   |   |   |   |   |   |   |   communityname = Youngstowncity : 0 (0/0)
|   |   |   |   |   |   |   |   |   |   communityname = Chattanoogacity : 0 (0/0)
|   |   |   |   |   |   |   |   |   |   communityname = Hopkinscity : 0 (0/0)
|   |   |   |   |   |   |   |   |   |   communityname = Daniacity : 0 (0/0)
|   |   |   |   |   |   |   |   |   |   communityname = NewBerlincity : 0 (0/0)
|   |   |   |   |   |   |   |   |   |   communityname = WarrensvilleHeightscity : 0 (0/0)
|   |   |   |   |   |   |   |   |   |   communityname = ElCajoncity : 0 (0/0)
|   |   |   |   |   |   |   |   |   |   communityname = Philadelphiacity : 0 (0/0)
|   |   |   |   |   |   |   |   |   |   communityname = Rockledgecity : 0 (0/0)
|   |   |   |   |   |   |   |   |   |   communityname = Bremertoncity : 0 (0/0)
|   |   |   |   |   |   |   |   |   |   communityname = Freeholdtownship : 0 (0/0)
|   |   |   |   |   |   |   |   |   |   communityname = Prescottcity : 0 (0/0)
|   |   |   |   |   |   |   |   |   |   communityname = HuntingtonParkcity : 0 (0/0)
|   |   |   |   |   |   |   |   |   |   communityname = Yakimacity : 0 (0/0)
|   |   |   |   |   |   |   |   |   |   communityname = Cupertinocity : 0 (0/0)
|   |   |   |   |   |   |   |   |   |   communityname = Masoncity : 0 (0/0)
|   |   |   |   |   |   |   |   |   |   communityname = Portsmouthcity : 0 (0/0)
|   |   |   |   |   |   |   |   |   |   communityname = NationalCitycity : 0 (0/0)
|   |   |   |   |   |   |   |   |   |   communityname = Augustacity : 0 (0/0)
|   |   |   |   |   |   |   |   |   |   communityname = Gallatincity : 0 (0/0)
|   |   |   |   |   |   |   |   |   |   communityname = Dallascity : 0 (0/0)
|   |   |   |   |   |   |   |   |   |   communityname = Bridgewatertownship : 0 (0/0)
|   |   |   |   |   |   |   |   |   |   communityname = Marioncity : 0 (0/0)
|   |   |   |   |   |   |   |   |   |   communityname = Pasadenacity : 0 (0/0)
|   |   |   |   |   |   |   |   |   |   communityname = BellGardenscity : 0 (0/0)
|   |   |   |   |   |   |   |   |   |   communityname = Coltoncity : 1 (1/0)
|   |   |   |   |   |   |   |   |   |   communityname = Hermistoncity : 0 (0/0)
|   |   |   |   |   |   |   |   |   |   communityname = Gorhamtown : 0 (0/0)
|   |   |   |   |   |   |   |   |   |   communityname = NewportBeachcity : 0 (0/0)
|   |   |   |   |   |   |   |   |   |   communityname = Charlottesvilledistrict : 0 (0/0)
|   |   |   |   |   |   |   |   |   |   communityname = Alliancecity : 0 (0/0)
|   |   |   |   |   |   |   |   |   |   communityname = McAlestercity : 0 (0/0)
|   |   |   |   |   |   |   |   |   |   communityname = WinterParkcity : 0 (0/0)
|   |   |   |   |   |   |   |   |   |   communityname = Lansdowneborough : 0 (0/0)
|   |   |   |   |   |   |   |   |   |   communityname = FortThomascity : 0 (0/0)
|   |   |   |   |   |   |   |   |   |   communityname = Springfieldcity : 1 (1/0)
|   |   |   |   |   |   |   |   |   |   communityname = CottageGrovecity : 0 (0/0)
|   |   |   |   |   |   |   |   |   |   communityname = Somersetcity : 0 (0/0)
|   |   |   |   |   |   |   |   |   |   communityname = Bloomfieldtown : 0 (0/0)
|   |   |   |   |   |   |   |   |   |   communityname = Covinacity : 0 (0/0)
|   |   |   |   |   |   |   |   |   |   communityname = BlueSpringscity : 0 (0/0)
|   |   |   |   |   |   |   |   |   |   communityname = Pampacity : 0 (0/0)
|   |   |   |   |   |   |   |   |   |   communityname = Oceantownship : 0 (0/0)
|   |   |   |   |   |   |   |   |   |   communityname = LakeOswegocity : 0 (0/0)
|   |   |   |   |   |   |   |   |   |   communityname = PacificGrovecity : 0 (0/0)
|   |   |   |   |   |   |   |   |   |   communityname = Lawndalecity : 0 (0/0)
|   |   |   |   |   |   |   |   |   |   communityname = Carlisleborough : 0 (0/0)
|   |   |   |   |   |   |   |   |   |   communityname = Radnortownship : 0 (0/0)
|   |   |   |   |   |   |   |   |   |   communityname = Comptoncity : 0 (0/0)
|   |   |   |   |   |   |   |   |   |   communityname = Maconcity : 0 (0/0)
|   |   |   |   |   |   |   |   |   |   communityname = Norwalkcity : 0 (0/0)
|   |   |   |   |   |   |   |   |   |   communityname = Downeycity : 0 (0/0)
|   |   |   |   |   |   |   |   |   |   communityname = Grovescity : 0 (0/0)
|   |   |   |   |   |   |   |   |   |   communityname = MiamiShoresvillage : 0 (0/0)
|   |   |   |   |   |   |   |   |   |   communityname = Gretnacity : 0 (0/0)
|   |   |   |   |   |   |   |   |   |   communityname = Norwoodcity : 0 (0/0)
|   |   |   |   |   |   |   |   |   |   communityname = RoyalPalmBeachvillage : 0 (0/0)
|   |   |   |   |   |   |   |   |   |   communityname = Lumbertoncity : 0 (0/0)
|   |   |   |   |   |   |   |   |   |   communityname = Swissvaleborough : 0 (0/0)
|   |   |   |   |   |   |   |   |   |   communityname = Durhamtown : 0 (0/0)
|   |   |   |   |   |   |   |   |   |   communityname = Planocity : 0 (0/0)
|   |   |   |   |   |   |   |   |   |   communityname = Alexandriacity : 0 (0/0)
|   |   |   |   |   |   |   |   |   |   communityname = Amesburytown : 0 (0/0)
|   |   |   |   |   |   |   |   |   |   communityname = Shelbycity : 0 (0/0)
|   |   |   |   |   |   |   |   |   |   communityname = Tupelocity : 0 (1/0)
|   |   |   |   |   |   |   |   |   |   communityname = Greenbeltcity : 0 (0/0)
|   |   |   |   |   |   |   |   |   |   communityname = Dickinsoncity : 0 (0/0)
|   |   |   |   |   |   |   |   |   |   communityname = Warwickcity : 0 (0/0)
|   |   |   |   |   |   |   |   |   |   communityname = Nortoncity : 0 (0/0)
|   |   |   |   |   |   |   |   |   |   communityname = SouthBurlingtoncity : 0 (0/0)
|   |   |   |   |   |   |   |   |   |   communityname = DelRiocity : 0 (0/0)
|   |   |   |   |   |   |   |   |   |   communityname = Owensborocity : 0 (0/0)
|   |   |   |   |   |   |   |   |   |   communityname = StevensPointcity : 0 (0/0)
|   |   |   |   |   |   |   |   |   |   communityname = Maynardtown : 0 (0/0)
|   |   |   |   |   |   |   |   |   |   communityname = Kennewickcity : 0 (0/0)
|   |   |   |   |   |   |   |   |   |   communityname = Wickliffecity : 0 (0/0)
|   |   |   |   |   |   |   |   |   |   communityname = Carrborotown : 0 (0/0)
|   |   |   |   |   |   |   |   |   |   communityname = Duartecity : 0 (0/0)
|   |   |   |   |   |   |   |   |   |   communityname = Bettendorfcity : 0 (0/0)
|   |   |   |   |   |   |   |   |   |   communityname = SanMarcoscity : 0 (0/0)
|   |   |   |   |   |   |   |   |   |   communityname = Bendcity : 0 (0/0)
|   |   |   |   |   |   |   |   |   |   communityname = Delrantownship : 0 (0/0)
|   |   |   |   |   |   |   |   |   |   communityname = GroverCitycity : 0 (0/0)
|   |   |   |   |   |   |   |   |   |   communityname = Plainvilletown : 0 (0/0)
|   |   |   |   |   |   |   |   |   |   communityname = Waterfordtownship : 0 (0/0)
|   |   |   |   |   |   |   |   |   |   communityname = Bryancity : 0 (0/0)
|   |   |   |   |   |   |   |   |   |   communityname = NewSmyrnaBeachcity : 0 (0/0)
|   |   |   |   |   |   |   |   |   |   communityname = Cookevillecity : 0 (0/0)
|   |   |   |   |   |   |   |   |   |   communityname = Portervillecity : 0 (0/0)
|   |   |   |   |   |   |   |   |   |   communityname = Dothancity : 1 (1/0)
|   |   |   |   |   |   |   |   |   |   communityname = Branchburgtownship : 0 (0/0)
|   |   |   |   |   |   |   |   |   |   communityname = Hopkinsvillecity : 0 (0/0)
|   |   |   |   |   |   |   |   |   |   communityname = Oswegocity : 0 (0/0)
|   |   |   |   |   |   |   |   |   |   communityname = Sedaliacity : 0 (0/0)
|   |   |   |   |   |   |   |   |   |   communityname = RedBankcity : 0 (0/0)
|   |   |   |   |   |   |   |   |   |   communityname = EastOrangecity : 0 (0/0)
|   |   |   |   |   |   |   |   |   |   communityname = Schenectadycity : 0 (0/0)
|   |   |   |   |   |   |   |   |   |   communityname = Murraycity : 0 (0/0)
|   |   |   |   |   |   |   |   |   |   communityname = McMinnvillecity : 0 (0/0)
|   |   |   |   |   |   |   |   |   |   communityname = Alhambracity : 0 (0/0)
|   |   |   |   |   |   |   |   |   |   communityname = Jacksoncity : 1 (1/0)
|   |   |   |   |   |   |   |   |   |   communityname = Phillipsburgtown : 0 (0/0)
|   |   |   |   |   |   |   |   |   |   communityname = PineBluffcity : 0 (0/0)
|   |   |   |   |   |   |   |   |   |   communityname = Parsippany-TroyHillstownship : 0 (0/0)
|   |   |   |   |   |   |   |   |   |   communityname = Garnertown : 0 (0/0)
|   |   |   |   |   |   |   |   |   |   communityname = Cambridgecity : 0 (0/0)
|   |   |   |   |   |   |   |   |   |   communityname = Johnstontown : 0 (0/0)
|   |   |   |   |   |   |   |   |   |   communityname = VestaviaHillscity : 0 (0/0)
|   |   |   |   |   |   |   |   |   |   communityname = Clarktownship : 0 (0/0)
|   |   |   |   |   |   |   |   |   |   communityname = Hackensackcity : 0 (0/0)
|   |   |   |   |   |   |   |   |   |   communityname = LaGrangecity : 0 (0/0)
|   |   |   |   |   |   |   |   |   |   communityname = Greendalevillage : 0 (0/0)
|   |   |   |   |   |   |   |   |   |   communityname = Plantationcity : 0 (0/0)
|   |   |   |   |   |   |   |   |   |   communityname = Roseburgcity : 0 (0/0)
|   |   |   |   |   |   |   |   |   |   communityname = PalmBaycity : 0 (0/0)
|   |   |   |   |   |   |   |   |   |   communityname = Onalaskacity : 0 (0/0)
|   |   |   |   |   |   |   |   |   |   communityname = CoosBaycity : 0 (0/0)
|   |   |   |   |   |   |   |   |   |   communityname = Hazletoncity : 0 (0/0)
|   |   |   |   |   |   |   |   |   |   communityname = Juneaucity : 0 (0/0)
|   |   |   |   |   |   |   |   |   |   communityname = Warringtontownship : 0 (0/0)
|   |   |   |   |   |   |   |   |   |   communityname = Neptunetownship : 0 (0/0)
|   |   |   |   |   |   |   |   |   |   communityname = WestDeptfordtownship : 0 (0/0)
|   |   |   |   |   |   |   |   |   |   communityname = Jenningscity : 0 (0/0)
|   |   |   |   |   |   |   |   |   |   communityname = Corsicanacity : 0 (0/0)
|   |   |   |   |   |   |   |   |   |   communityname = Laceycity : 0 (0/0)
|   |   |   |   |   |   |   |   |   |   communityname = Milwaukiecity : 0 (0/0)
|   |   |   |   |   |   |   |   |   |   communityname = JeffersonCitycity : 0 (0/0)
|   |   |   |   |   |   |   |   |   |   communityname = ColoradoSpringsdivision : 0 (0/0)
|   |   |   |   |   |   |   |   |   |   communityname = Rexburgcity : 0 (0/0)
|   |   |   |   |   |   |   |   |   |   communityname = Palatkacity : 0 (0/0)
|   |   |   |   |   |   |   |   |   |   communityname = BuenaParkcity : 0 (0/0)
|   |   |   |   |   |   |   |   |   |   communityname = Olympiacity : 0 (0/0)
|   |   |   |   |   |   |   |   |   |   communityname = Weirtoncity : 0 (0/0)
|   |   |   |   |   |   |   |   |   |   communityname = Tahlequahcity : 0 (0/0)
|   |   |   |   |   |   |   |   |   |   communityname = Edisontownship : 0 (0/0)
|   |   |   |   |   |   |   |   |   |   communityname = MapleShadetownship : 0 (0/0)
|   |   |   |   |   |   |   |   |   |   communityname = Ipswichtown : 0 (0/0)
|   |   |   |   |   |   |   |   |   |   communityname = NorthSmithfieldtown : 0 (0/0)
|   |   |   |   |   |   |   |   |   |   communityname = Statesborocity : 0 (0/0)
|   |   |   |   |   |   |   |   |   |   communityname = Moontownship : 0 (0/0)
|   |   |   |   |   |   |   |   |   |   communityname = Hattiesburgcity : 0 (0/0)
|   |   |   |   |   |   |   |   |   |   communityname = Marshallcity : 0 (0/0)
|   |   |   |   |   |   |   |   |   |   communityname = LeagueCitycity : 0 (0/0)
|   |   |   |   |   |   |   |   |   |   communityname = Scituatetown : 0 (0/0)
|   |   |   |   |   |   |   |   |   |   communityname = Concordtown : 0 (0/0)
|   |   |   |   |   |   |   |   |   |   communityname = Rocklincity : 0 (0/0)
|   |   |   |   |   |   |   |   |   |   communityname = CocoaBeachcity : 0 (0/0)
|   |   |   |   |   |   |   |   |   |   communityname = Wilkinsburgborough : 0 (0/0)
|   |   |   |   |   |   |   |   |   |   communityname = Turlockcity : 0 (0/0)
|   |   |   |   |   |   |   |   |   |   communityname = PortOrangecity : 0 (0/0)
|   |   |   |   |   |   |   |   |   |   communityname = Newingtontown : 0 (0/0)
|   |   |   |   |   |   |   |   |   |   communityname = Tivertontown : 0 (0/0)
|   |   |   |   |   |   |   |   |   |   communityname = Shalertownship : 0 (0/0)
|   |   |   |   |   |   |   |   |   |   communityname = NorthPalmBeachvillage : 0 (0/0)
|   |   |   |   |   |   |   |   |   |   communityname = Atwatercity : 0 (0/0)
|   |   |   |   |   |   |   |   |   |   communityname = Steubenvillecity : 0 (0/0)
|   |   |   |   |   |   |   |   |   |   communityname = SanClementecity : 0 (0/0)
|   |   |   |   |   |   |   |   |   |   communityname = Greenwichtown : 0 (0/0)
|   |   |   |   |   |   |   |   |   |   communityname = Warwicktownship : 0 (0/0)
|   |   |   |   |   |   |   |   |   |   communityname = Mesquitecity : 0 (0/0)
|   |   |   |   |   |   |   |   |   |   communityname = SanPablocity : 0 (0/0)
|   |   |   |   |   |   |   |   |   |   communityname = Hammondcity : 0 (0/0)
|   |   |   |   |   |   |   |   |   |   communityname = PinellasParkcity : 0 (0/0)
|   |   |   |   |   |   |   |   |   |   communityname = Salinascity : 0 (0/0)
|   |   |   |   |   |   |   |   |   |   communityname = Lenoircity : 0 (0/0)
|   |   |   |   |   |   |   |   |   |   communityname = Farmingtoncity : 0 (0/0)
|   |   |   |   |   |   |   |   |   |   communityname = GroveCitycity : 0 (0/0)
|   |   |   |   |   |   |   |   |   |   communityname = LosAltoscity : 0 (0/0)
|   |   |   |   |   |   |   |   |   |   communityname = Daviscity : 0 (0/0)
|   |   |   |   |   |   |   |   |   |   communityname = OilCitycity : 0 (0/0)
|   |   |   |   |   |   |   |   |   |   communityname = Perrysburgcity : 0 (0/0)
|   |   |   |   |   |   |   |   |   |   communityname = Harlingencity : 0 (0/0)
|   |   |   |   |   |   |   |   |   |   communityname = Flagstaffcity : 0 (0/0)
|   |   |   |   |   |   |   |   |   |   communityname = Wilsoncity : 0 (0/0)
|   |   |   |   |   |   |   |   |   |   communityname = Limacity : 0 (0/0)
|   |   |   |   |   |   |   |   |   |   communityname = Alicecity : 0 (0/0)
|   |   |   |   |   |   |   |   |   |   communityname = Bethlehemcity : 0 (0/0)
|   |   |   |   |   |   |   |   |   |   communityname = Douglascity : 0 (0/0)
|   |   |   |   |   |   |   |   |   |   communityname = Asheborocity : 0 (0/0)
|   |   |   |   |   |   |   |   |   |   communityname = Hobartcity : 0 (0/0)
|   |   |   |   |   |   |   |   |   |   communityname = EaglePasscity : 0 (0/0)
|   |   |   |   |   |   |   |   |   |   communityname = VanBurencity : 0 (0/0)
|   |   |   |   |   |   |   |   |   |   communityname = RockHillcity : 0 (0/0)
|   |   |   |   |   |   |   |   |   |   communityname = Sarasotacity : 0 (0/0)
|   |   |   |   |   |   |   |   |   |   communityname = Irvingcity : 0 (0/0)
|   |   |   |   |   |   |   |   |   |   communityname = LauderdaleLakescity : 0 (0/0)
|   |   |   |   |   |   |   |   |   |   communityname = Tularecity : 0 (0/0)
|   |   |   |   |   |   |   |   |   |   communityname = Kellercity : 0 (0/0)
|   |   |   |   |   |   |   |   |   |   communityname = FlowerMoundtown : 0 (0/0)
|   |   |   |   |   |   |   |   |   |   communityname = Mariettacity : 0 (0/0)
|   |   |   |   |   |   |   |   |   |   communityname = Benbrookcity : 0 (0/0)
|   |   |   |   |   |   |   |   |   |   communityname = Eufaulacity : 0 (1/0)
|   |   |   |   |   |   |   |   |   |   communityname = ChapelHilltown : 0 (0/0)
|   |   |   |   |   |   |   |   |   |   communityname = Miamisburgcity : 0 (0/0)
|   |   |   |   |   |   |   |   |   |   communityname = Paradisetown : 0 (0/0)
|   |   |   |   |   |   |   |   |   |   communityname = Simpsonvilletown : 0 (0/0)
|   |   |   |   |   |   |   |   |   |   communityname = Pleasantoncity : 0 (0/0)
|   |   |   |   |   |   |   |   |   |   communityname = Muskogeecity : 0 (0/0)
|   |   |   |   |   |   |   |   |   |   communityname = Clarksvilletown : 0 (0/0)
|   |   |   |   |   |   |   |   |   |   communityname = Whittiercity : 0 (0/0)
|   |   |   |   |   |   |   |   |   |   communityname = WestCovinacity : 0 (0/0)
|   |   |   |   |   |   |   |   |   |   communityname = Whitehallborough : 0 (0/0)
|   |   |   |   |   |   |   |   |   |   communityname = Munstertown : 0 (0/0)
|   |   |   |   |   |   |   |   |   |   communityname = Rosevillecity : 0 (0/0)
|   |   |   |   |   |   |   |   |   |   communityname = Brooklinetown : 0 (0/0)
|   |   |   |   |   |   |   |   |   |   communityname = Towamencintownship : 0 (0/0)
|   |   |   |   |   |   |   |   |   |   communityname = Snellvillecity : 0 (0/0)
|   |   |   |   |   |   |   |   |   |   communityname = Brookingscity : 0 (0/0)
|   |   |   |   |   |   |   |   |   |   communityname = Conwaycity : 0 (0/0)
|   |   |   |   |   |   |   |   |   |   communityname = Madisoncity : 0 (0/0)
|   |   |   |   |   |   |   |   |   |   communityname = Millingtoncity : 0 (0/0)
|   |   |   |   |   |   |   |   |   |   communityname = Norwichtown : 0 (0/0)
|   |   |   |   |   |   |   |   |   |   communityname = SulphurSpringscity : 0 (0/0)
|   |   |   |   |   |   |   |   |   |   communityname = Hagerstowncity : 0 (0/0)
|   |   |   |   |   |   |   |   |   |   communityname = MountPleasanttown : 0 (0/0)
|   |   |   |   |   |   |   |   |   |   communityname = CrownPointcity : 0 (0/0)
|   |   |   |   |   |   |   |   |   |   communityname = SaratogaSpringscity : 0 (0/0)
|   |   |   |   |   |   |   |   |   |   communityname = Narragansetttown : 0 (0/0)
|   |   |   |   |   |   |   |   |   |   communityname = MissionViejocity : 0 (0/0)
|   |   |   |   |   |   |   |   |   |   communityname = Derrytown : 0 (0/0)
|   |   |   |   |   |   |   |   |   |   communityname = Haywardcity : 0 (0/0)
|   |   |   |   |   |   |   |   |   |   communityname = HighlandParkborough : 0 (0/0)
|   |   |   |   |   |   |   |   |   |   communityname = DePerecity : 0 (0/0)
|   |   |   |   |   |   |   |   |   |   communityname = KansasCitycity : 0 (0/0)
|   |   |   |   |   |   |   |   |   |   communityname = Holmdeltownship : 0 (0/0)
|   |   |   |   |   |   |   |   |   |   communityname = Cumrutownship : 0 (0/0)
|   |   |   |   |   |   |   |   |   |   communityname = Logancity : 0 (0/0)
|   |   |   |   |   |   |   |   |   |   communityname = Louisvillecity : 0 (0/0)
|   |   |   |   |   |   |   |   |   |   communityname = WestHartfordtown : 0 (0/0)
|   |   |   |   |   |   |   |   |   |   communityname = Tuskegeecity : 0 (0/0)
|   |   |   |   |   |   |   |   |   |   communityname = Pocatellocity : 0 (0/0)
|   |   |   |   |   |   |   |   |   |   communityname = Scottsdalecity : 0 (0/0)
|   |   |   |   |   |   |   |   |   |   communityname = Stuartcity : 0 (0/0)
|   |   |   |   |   |   |   |   |   |   communityname = Bernardstownship : 0 (0/0)
|   |   |   |   |   |   |   |   |   |   communityname = Northbridgetown : 0 (0/0)
|   |   |   |   |   |   |   |   |   |   communityname = Bloomfieldtownship : 0 (0/0)
|   |   |   |   |   |   |   |   |   |   communityname = Sweetwatercity : 0 (0/0)
|   |   |   |   |   |   |   |   |   |   communityname = Crawfordsvillecity : 0 (0/0)
|   |   |   |   |   |   |   |   |   |   communityname = SanRafaelcity : 0 (0/0)
|   |   |   |   |   |   |   |   |   |   communityname = ElkCitycity : 0 (0/0)
|   |   |   |   |   |   |   |   |   |   communityname = Fairmontcity : 0 (0/0)
|   |   |   |   |   |   |   |   |   |   communityname = Pacificacity : 0 (0/0)
|   |   |   |   |   |   |   |   |   |   communityname = Smithfieldtown : 0 (0/0)
|   |   |   |   |   |   |   |   |   |   communityname = Barstowcity : 0 (0/0)
|   |   |   |   |   |   |   |   |   |   communityname = LosGatostown : 0 (0/0)
|   |   |   |   |   |   |   |   |   |   communityname = SouthPlainfieldborough : 0 (0/0)
|   |   |   |   |   |   |   |   |   |   communityname = Middletoncity : 0 (0/0)
|   |   |   |   |   |   |   |   |   |   communityname = NorthAndovertown : 0 (0/0)
|   |   |   |   |   |   |   |   |   |   communityname = FarmersBranchcity : 0 (0/0)
|   |   |   |   |   |   |   |   |   |   communityname = TwinFallscity : 0 (0/0)
|   |   |   |   |   |   |   |   |   |   communityname = Hilliardcity : 0 (0/0)
|   |   |   |   |   |   |   |   |   |   communityname = Oleancity : 0 (0/0)
|   |   |   |   |   |   |   |   |   |   communityname = Alvincity : 0 (0/0)
|   |   |   |   |   |   |   |   |   |   communityname = Homewoodcity : 0 (0/0)
|   |   |   |   |   |   |   |   |   |   communityname = Morristownship : 0 (0/0)
|   |   |   |   |   |   |   |   |   |   communityname = Pembertontownship : 0 (0/0)
|   |   |   |   |   |   |   |   |   |   communityname = Cincinnaticity : 0 (0/0)
|   |   |   |   |   |   |   |   |   |   communityname = Walnutcity : 0 (0/0)
|   |   |   |   |   |   |   |   |   |   communityname = CopperasCovecity : 0 (0/0)
|   |   |   |   |   |   |   |   |   |   communityname = Coronadocity : 0 (0/0)
|   |   |   |   |   |   |   |   |   |   communityname = Uxbridgetown : 0 (0/0)
|   |   |   |   |   |   |   |   |   |   communityname = Connersvillecity : 0 (0/0)
|   |   |   |   |   |   |   |   |   |   communityname = Orangeburgcity : 0 (0/0)
|   |   |   |   |   |   |   |   |   |   communityname = SouthMiamicity : 1 (1/0)
|   |   |   |   |   |   |   |   |   |   communityname = Harrisontown : 0 (0/0)
|   |   |   |   |   |   |   |   |   |   communityname = Prichardcity : 0 (0/0)
|   |   |   |   |   |   |   |   |   |   communityname = Goshentownship : 0 (0/0)
|   |   |   |   |   |   |   |   |   |   communityname = WestHollywoodcity : 0 (0/0)
|   |   |   |   |   |   |   |   |   |   communityname = NewCastlecity : 0 (0/0)
|   |   |   |   |   |   |   |   |   |   communityname = Shivelycity : 0 (0/0)
|   |   |   |   |   |   |   |   |   |   communityname = Tuscaloosacity : 0 (0/0)
|   |   |   |   |   |   |   |   |   |   communityname = Indianolacity : 0 (0/0)
|   |   |   |   |   |   |   |   |   |   communityname = Berlintown : 0 (0/0)
|   |   |   |   |   |   |   |   |   |   communityname = Peterstownship : 0 (0/0)
|   |   |   |   |   |   |   |   |   |   communityname = Beaumontcity : 0 (0/0)
|   |   |   |   |   |   |   |   |   |   communityname = Gilberttown : 0 (0/0)
|   |   |   |   |   |   |   |   |   |   communityname = Casselberrycity : 0 (0/0)
|   |   |   |   |   |   |   |   |   |   communityname = Cartersvillecity : 0 (0/0)
|   |   |   |   |   |   |   |   |   |   communityname = Northboroughtown : 0 (0/0)
|   |   |   |   |   |   |   |   |   |   communityname = Bedfordcity : 0 (0/0)
|   |   |   |   |   |   |   |   |   |   communityname = Plainfieldcity : 0 (0/0)
|   |   |   |   |   |   |   |   |   |   communityname = Uniontownship : 0 (0/0)
|   |   |   |   |   |   |   |   |   |   communityname = Holbrooktown : 0 (0/0)
|   |   |   |   |   |   |   |   |   |   communityname = CollegeParkcity : 0 (0/0)
|   |   |   |   |   |   |   |   |   |   communityname = Westwegocity : 0 (0/0)
|   |   |   |   |   |   |   |   |   |   communityname = Providencecity : 0 (0/0)
|   |   |   |   |   |   |   |   |   |   communityname = OregonCitycity : 0 (0/0)
|   |   |   |   |   |   |   |   |   |   communityname = Watervillecity : 0 (0/0)
|   |   |   |   |   |   |   |   |   |   communityname = Winchestercity : 0 (0/0)
|   |   |   |   |   |   |   |   |   |   communityname = Jacksontownship : 0 (0/0)
|   |   |   |   |   |   |   |   |   |   communityname = NorthProvidencetown : 0 (0/0)
|   |   |   |   |   |   |   |   |   |   communityname = SouthWhitehalltownship : 0 (0/0)
|   |   |   |   |   |   |   |   |   |   communityname = Veronatownship : 0 (0/0)
|   |   |   |   |   |   |   |   |   |   communityname = Hinghamtown : 0 (0/0)
|   |   |   |   |   |   |   |   |   |   communityname = Mitchellcity : 0 (0/0)
|   |   |   |   |   |   |   |   |   |   communityname = Urbanacity : 0 (0/0)
|   |   |   |   |   |   |   |   |   |   communityname = Valdostacity : 0 (0/0)
|   |   |   |   |   |   |   |   |   |   communityname = Grahamcity : 0 (0/0)
|   |   |   |   |   |   |   |   |   |   communityname = Marinettecity : 0 (0/0)
|   |   |   |   |   |   |   |   |   |   communityname = Princetonborough : 0 (0/0)
|   |   |   |   |   |   |   |   |   |   communityname = Thomasvillecity : 0 (0/0)
|   |   |   |   |   |   |   |   |   |   communityname = Rogerscity : 0 (0/0)
|   |   |   |   |   |   |   |   |   |   communityname = Sterlingcity : 0 (0/0)
|   |   |   |   |   |   |   |   |   |   communityname = Lynwoodcity : 0 (0/0)
|   |   |   |   |   |   |   |   |   |   communityname = WestMilfordtownship : 0 (0/0)
|   |   |   |   |   |   |   |   |   |   communityname = Waukeshacity : 0 (0/0)
|   |   |   |   |   |   |   |   |   |   communityname = Opelikacity : 1 (1/0)
|   |   |   |   |   |   |   |   |   |   communityname = LaMesacity : 0 (0/0)
|   |   |   |   |   |   |   |   |   |   communityname = Bellinghamcity : 0 (0/0)
|   |   |   |   |   |   |   |   |   |   communityname = Durhamcity : 0 (0/0)
|   |   |   |   |   |   |   |   |   |   communityname = Herculescity : 0 (0/0)
|   |   |   |   |   |   |   |   |   |   communityname = Daytoncity : 0 (0/0)
|   |   |   |   |   |   |   |   |   |   communityname = Stowcity : 0 (0/0)
|   |   |   |   |   |   |   |   |   |   communityname = Newportcity : 0 (0/0)
|   |   |   |   |   |   |   |   |   |   communityname = Herndontown : 0 (0/0)
|   |   |   |   |   |   |   |   |   |   communityname = Coppellcity : 0 (0/0)
|   |   |   |   |   |   |   |   |   |   communityname = Indiocity : 0 (0/0)
|   |   |   |   |   |   |   |   |   |   communityname = NewLondontown : 0 (0/0)
|   |   |   |   |   |   |   |   |   |   communityname = Longmeadowtown : 0 (0/0)
|   |   |   |   |   |   |   |   |   |   communityname = Burlingtoncity : 0 (1/0)
|   |   |   |   |   |   |   |   |   |   communityname = Ashlandcity : 0 (0/0)
|   |   |   |   |   |   |   |   |   |   communityname = Glendoracity : 0 (0/0)
|   |   |   |   |   |   |   |   |   |   communityname = Sunnyvalecity : 0 (0/0)
|   |   |   |   |   |   |   |   |   |   communityname = Tredyffrintownship : 0 (0/0)
|   |   |   |   |   |   |   |   |   |   communityname = NewIberiacity : 0 (0/0)
|   |   |   |   |   |   |   |   |   |   communityname = Midvalecity : 0 (0/0)
|   |   |   |   |   |   |   |   |   |   communityname = Livermorecity : 0 (0/0)
|   |   |   |   |   |   |   |   |   |   communityname = Kaukaunacity : 0 (0/0)
|   |   |   |   |   |   |   |   |   |   communityname = Evanstoncity : 0 (0/0)
|   |   |   |   |   |   |   |   |   |   communityname = Greenwoodcity : 0 (0/0)
|   |   |   |   |   |   |   |   |   |   communityname = Noblesvillecity : 0 (0/0)
|   |   |   |   |   |   |   |   |   |   communityname = Medfieldtown : 0 (0/0)
|   |   |   |   |   |   |   |   |   |   communityname = ElPasocity : 0 (0/0)
|   |   |   |   |   |   |   |   |   |   communityname = Bellinghamtown : 0 (0/0)
|   |   |   |   |   |   |   |   |   |   communityname = Manchestertownship : 0 (0/0)
|   |   |   |   |   |   |   |   |   |   communityname = Longmontcity : 0 (0/0)
|   |   |   |   |   |   |   |   |   |   communityname = Gatesvillecity : 0 (0/0)
|   |   |   |   |   |   |   |   |   |   communityname = Manalapantownship : 0 (0/0)
|   |   |   |   |   |   |   |   |   |   communityname = NewProvidenceborough : 0 (0/0)
|   |   |   |   |   |   |   |   |   |   communityname = Framinghamtown : 0 (0/0)
|   |   |   |   |   |   |   |   |   |   communityname = Arcatacity : 0 (0/0)
|   |   |   |   |   |   |   |   |   |   communityname = Edencity : 0 (0/0)
|   |   |   |   |   |   |   |   |   |   communityname = PompanoBeachcity : 0 (0/0)
|   |   |   |   |   |   |   |   |   |   communityname = TwoRiverscity : 0 (0/0)
|   |   |   |   |   |   |   |   |   |   communityname = Moorestowntownship : 0 (0/0)
|   |   |   |   |   |   |   |   |   |   communityname = Washingtoncity : 0 (0/0)
|   |   |   |   |   |   |   |   |   |   communityname = Emmausborough : 0 (0/0)
|   |   |   |   |   |   |   |   |   |   communityname = Oconomowoccity : 0 (0/0)
|   |   |   |   |   |   |   |   |   |   communityname = SanCarloscity : 0 (0/0)
|   |   |   |   |   |   |   |   |   |   communityname = Manheimtownship : 0 (0/0)
|   |   |   |   |   |   |   |   |   |   communityname = Moundsvillecity : 0 (0/0)
|   |   |   |   |   |   |   |   |   |   communityname = Pascagoulacity : 1 (1/0)
|   |   |   |   |   |   |   |   |   |   communityname = Coatesvillecity : 0 (0/0)
|   |   |   |   |   |   |   |   |   |   communityname = MiamiSpringscity : 0 (0/0)
|   |   |   |   |   |   |   |   |   |   communityname = Escondidocity : 0 (0/0)
|   |   |   |   |   |   |   |   |   |   communityname = Hawthornecity : 0 (0/0)
|   |   |   |   |   |   |   |   |   |   communityname = Bridgetoncity : 0 (0/0)
|   |   |   |   |   |   |   |   |   |   communityname = ChulaVistacity : 0 (0/0)
|   |   |   |   |   |   |   |   |   |   communityname = PalmDesertcity : 0 (0/0)
|   |   |   |   |   |   |   |   |   |   communityname = SanJosecity : 0 (0/0)
|   |   |   |   |   |   |   |   |   |   communityname = Newtoncity : 0 (0/0)
|   |   |   |   |   |   |   |   |   |   communityname = Shorewoodvillage : 0 (0/0)
|   |   |   |   |   |   |   |   |   |   communityname = Claremorecity : 0 (0/0)
|   |   |   |   |   |   |   |   |   |   communityname = SanJacintocity : 0 (0/0)
|   |   |   |   |   |   |   |   |   |   communityname = Robstowncity : 0 (0/0)
|   |   |   |   |   |   |   |   |   |   communityname = Carytown : 0 (0/0)
|   |   |   |   |   |   |   |   |   |   communityname = LaQuintacity : 0 (0/0)
|   |   |   |   |   |   |   |   |   |   communityname = Sharonvillecity : 0 (0/0)
|   |   |   |   |   |   |   |   |   |   communityname = SaltLakeCitycity : 0 (0/0)
|   |   |   |   |   |   |   |   |   |   communityname = Venicecity : 0 (0/0)
|   |   |   |   |   |   |   |   |   |   communityname = SimiValleycity : 0 (0/0)
|   |   |   |   |   |   |   |   |   |   communityname = Maderacity : 0 (0/0)
|   |   |   |   |   |   |   |   |   |   communityname = SafetyHarborcity : 0 (0/0)
|   |   |   |   |   |   |   |   |   |   communityname = Martinsvillecity : 0 (1/0)
|   |   |   |   |   |   |   |   |   |   communityname = Farmingtontown : 0 (0/0)
|   |   |   |   |   |   |   |   |   |   communityname = Scottsborocity : 0 (0/0)
|   |   |   |   |   |   |   |   |   |   communityname = ShakerHeightscity : 0 (0/0)
|   |   |   |   |   |   |   |   |   |   communityname = Webstertown : 0 (0/0)
|   |   |   |   |   |   |   |   |   |   communityname = Girardcity : 0 (0/0)
|   |   |   |   |   |   |   |   |   |   communityname = Bloomingtoncity : 0 (0/0)
|   |   |   |   |   |   |   |   |   |   communityname = NorthAdamscity : 0 (0/0)
|   |   |   |   |   |   |   |   |   |   communityname = Irmotown : 0 (0/0)
|   |   |   |   |   |   |   |   |   |   communityname = BowlingGreencity : 0 (0/0)
|   |   |   |   |   |   |   |   |   |   communityname = Bouldercity : 0 (0/0)
|   |   |   |   |   |   |   |   |   |   communityname = Lawrencetownship : 0 (0/0)
|   |   |   |   |   |   |   |   |   |   communityname = WestAlliscity : 0 (0/0)
|   |   |   |   |   |   |   |   |   |   communityname = Soloncity : 0 (0/0)
|   |   |   |   |   |   |   |   |   |   communityname = Rentoncity : 0 (0/0)
|   |   |   |   |   |   |   |   |   |   communityname = Vinelandcity : 0 (0/0)
|   |   |   |   |   |   |   |   |   |   communityname = Burlesoncity : 0 (0/0)
|   |   |   |   |   |   |   |   |   |   communityname = Pleasantvillecity : 1 (1/0)
|   |   |   |   |   |   |   |   |   |   communityname = Nilescity : 0 (0/0)
|   |   |   |   |   |   |   |   |   |   communityname = Atholtown : 0 (0/0)
|   |   |   |   |   |   |   |   |   |   communityname = Bothellcity : 0 (0/0)
|   |   |   |   |   |   |   |   |   |   communityname = Kernersvilletown : 0 (0/0)
|   |   |   |   |   |   |   |   |   |   communityname = SanAntoniocity : 0 (0/0)
|   |   |   |   |   |   |   |   |   |   communityname = Wakefieldtown : 0 (0/0)
|   |   |   |   |   |   |   |   |   |   communityname = Livingstontownship : 0 (0/0)
|   |   |   |   |   |   |   |   |   |   communityname = Middletowntown : 0 (0/0)
|   |   |   |   |   |   |   |   |   |   communityname = BeaverFallscity : 0 (0/0)
|   |   |   |   |   |   |   |   |   |   communityname = Hesperiacity : 0 (0/0)
|   |   |   |   |   |   |   |   |   |   communityname = Butlercity : 0 (0/0)
|   |   |   |   |   |   |   |   |   |   communityname = SierraVistacity : 0 (0/0)
|   |   |   |   |   |   |   |   |   |   communityname = Schertzcity : 0 (0/0)
|   |   |   |   |   |   |   |   |   |   communityname = LowerSalfordtownship : 0 (0/0)
|   |   |   |   |   |   |   |   |   |   communityname = Searcycity : 0 (0/0)
|   |   |   |   |   |   |   |   |   |   communityname = Sylvaniatownship : 0 (0/0)
|   |   |   |   |   |   |   |   |   |   communityname = Worthingtoncity : 0 (0/0)
|   |   |   |   |   |   |   |   |   |   communityname = Highlandtown : 0 (0/0)
|   |   |   |   |   |   |   |   |   |   communityname = Lewisvillecity : 0 (0/0)
|   |   |   |   |   |   |   |   |   |   communityname = Chickashacity : 0 (0/0)
|   |   |   |   |   |   |   |   |   |   communityname = EggHarbortownship : 0 (0/0)
|   |   |   |   |   |   |   |   |   |   communityname = Griffithtown : 0 (0/0)
|   |   |   |   |   |   |   |   |   |   communityname = Bessemercity : 0 (0/0)
|   |   |   |   |   |   |   |   |   |   communityname = Fremontcity : 0 (0/0)
|   |   |   |   |   |   |   |   |   |   communityname = Naticktown : 0 (0/0)
|   |   |   |   |   |   |   |   |   |   communityname = Normancity : 0 (0/0)
|   |   |   |   |   |   |   |   |   |   communityname = Ridgelandcity : 0 (0/0)
|   |   |   |   |   |   |   |   |   |   communityname = Princetontownship : 0 (0/0)
|   |   |   |   |   |   |   |   |   |   communityname = MountainViewcity : 0 (0/0)
|   |   |   |   |   |   |   |   |   |   communityname = Tenaflyborough : 0 (0/0)
|   |   |   |   |   |   |   |   |   |   communityname = Burbankcity : 0 (0/0)
|   |   |   |   |   |   |   |   |   |   communityname = Lockportcity : 0 (0/0)
|   |   |   |   |   |   |   |   |   |   communityname = Eatontownborough : 0 (0/0)
|   |   |   |   |   |   |   |   |   |   communityname = SierraMadrecity : 0 (0/0)
|   |   |   |   |   |   |   |   |   |   communityname = Bristoltown : 0 (0/0)
|   |   |   |   |   |   |   |   |   |   communityname = OakCreekcity : 0 (0/0)
|   |   |   |   |   |   |   |   |   |   communityname = Miamicity : 0 (0/0)
|   |   |   |   |   |   |   |   |   |   communityname = Dentoncity : 0 (0/0)
|   |   |   |   |   |   |   |   |   |   communityname = LincolnParkborough : 0 (0/0)
|   |   |   |   |   |   |   |   |   |   communityname = SanBrunocity : 0 (0/0)
|   |   |   |   |   |   |   |   |   |   communityname = Columbiaborough : 0 (0/0)
|   |   |   |   |   |   |   |   |   |   communityname = CathedralCitycity : 0 (0/0)
|   |   |   |   |   |   |   |   |   |   communityname = Bridgewatertown : 0 (0/0)
|   |   |   |   |   |   |   |   |   |   communityname = Slidellcity : 0 (0/0)
|   |   |   |   |   |   |   |   |   |   communityname = Cudahycity : 0 (0/0)
|   |   |   |   |   |   |   |   |   |   communityname = Sacocity : 0 (0/0)
|   |   |   |   |   |   |   |   |   |   communityname = Orangetown : 0 (0/0)
|   |   |   |   |   |   |   |   |   |   communityname = Moultriecity : 0 (0/0)
|   |   |   |   |   |   |   |   |   |   communityname = Roswellcity : 0 (0/0)
|   |   |   |   |   |   |   |   |   |   communityname = NewBedfordcity : 0 (0/0)
|   |   |   |   |   |   |   |   |   |   communityname = EastRidgecity : 0 (0/0)
|   |   |   |   |   |   |   |   |   |   communityname = Johnstowncity : 0 (0/0)
|   |   |   |   |   |   |   |   |   |   communityname = Chestercity : 0 (0/0)
|   |   |   |   |   |   |   |   |   |   communityname = LakeJacksoncity : 0 (0/0)
|   |   |   |   |   |   |   |   |   |   communityname = FortSmithcity : 0 (0/0)
|   |   |   |   |   |   |   |   |   |   communityname = Hemetcity : 0 (0/0)
|   |   |   |   |   |   |   |   |   |   communityname = ParadiseValleytown : 0 (0/0)
|   |   |   |   |   |   |   |   |   |   communityname = Oaklandcity : 0 (0/0)
|   |   |   |   |   |   |   |   |   |   communityname = Reedleycity : 0 (0/0)
|   |   |   |   |   |   |   |   |   |   communityname = ArroyoGrandecity : 0 (0/0)
|   |   |   |   |   |   |   |   |   |   communityname = Northamptontownship : 0 (0/0)
|   |   |   |   |   |   |   |   |   |   communityname = Hamptoncity : 0 (0/0)
|   |   |   |   |   |   |   |   |   |   communityname = WestSacramentocity : 0 (0/0)
|   |   |   |   |   |   |   |   |   |   communityname = Sylacaugacity : 0 (0/0)
|   |   |   |   |   |   |   |   |   |   communityname = LighthousePointcity : 0 (0/0)
|   |   |   |   |   |   |   |   |   |   communityname = Dunkirkcity : 0 (0/0)
|   |   |   |   |   |   |   |   |   |   communityname = Vallejocity : 0 (0/0)
|   |   |   |   |   |   |   |   |   |   communityname = Kennettcity : 0 (0/0)
|   |   |   |   |   |   |   |   |   |   communityname = SouthGatecity : 0 (0/0)
|   |   |   |   |   |   |   |   |   |   communityname = HermosaBeachcity : 0 (0/0)
|   |   |   |   |   |   |   |   |   |   communityname = UpperGwyneddtownship : 0 (0/0)
|   |   |   |   |   |   |   |   |   |   communityname = Simsburytown : 0 (0/0)
|   |   |   |   |   |   |   |   |   |   communityname = Medfordcity : 0 (0/0)
|   |   |   |   |   |   |   |   |   |   communityname = Dubuquecity : 0 (0/0)
|   |   |   |   |   |   |   |   |   |   communityname = Whitewatercity : 0 (0/0)
|   |   |   |   |   |   |   |   |   |   communityname = Broomfieldcity : 0 (0/0)
|   |   |   |   |   |   |   |   |   |   communityname = Westlakecity : 0 (0/0)
|   |   |   |   |   |   |   |   |   |   communityname = LakeWorthcity : 0 (0/0)
|   |   |   |   |   |   |   |   |   |   communityname = Duncanvillecity : 0 (0/0)
|   |   |   |   |   |   |   |   |   |   communityname = Brawleycity : 0 (0/0)
|   |   |   |   |   |   |   |   |   |   communityname = Ramseyborough : 0 (0/0)
|   |   |   |   |   |   |   |   |   |   communityname = Miramarcity : 0 (0/0)
|   |   |   |   |   |   |   |   |   |   communityname = Miltontown : 0 (0/0)
|   |   |   |   |   |   |   |   |   |   communityname = SantaAnacity : 0 (0/0)
|   |   |   |   |   |   |   |   |   |   communityname = Saugustown : 0 (0/0)
|   |   |   |   |   |   |   |   |   |   communityname = Woodwardcity : 0 (0/0)
|   |   |   |   |   |   |   |   |   |   communityname = Somersworthcity : 0 (0/0)
|   |   |   |   |   |   |   |   |   |   communityname = Scotttownship : 0 (0/0)
|   |   |   |   |   |   |   |   |   |   communityname = Middletownship : 0 (0/0)
|   |   |   |   |   |   |   |   |   |   communityname = Watertowntown : 0 (0/0)
|   |   |   |   |   |   |   |   |   |   communityname = EastPointcity : 0 (0/0)
|   |   |   |   |   |   |   |   |   |   communityname = OldBridgetownship : 0 (0/0)
|   |   |   |   |   |   |   |   |   |   communityname = Hilltowntownship : 0 (0/0)
|   |   |   |   |   |   |   |   |   |   communityname = Vincennescity : 0 (0/0)
|   |   |   |   |   |   |   |   |   |   communityname = Tallahasseecity : 0 (0/0)
|   |   |   |   |   |   |   |   |   |   communityname = Madisonborough : 0 (0/0)
|   |   |   |   |   |   |   |   |   |   communityname = Longviewcity : 0 (0/0)
|   |   |   |   |   |   |   |   |   |   communityname = Barringtontown : 0 (0/0)
|   |   |   |   |   |   |   |   |   |   communityname = CoralGablescity : 0 (0/0)
|   |   |   |   |   |   |   |   |   |   communityname = Hopatcongborough : 0 (0/0)
|   |   |   |   |   |   |   |   |   |   communityname = Puyallupcity : 0 (0/0)
|   |   |   |   |   |   |   |   |   |   communityname = Eunicecity : 0 (0/0)
|   |   |   |   |   |   |   |   |   |   communityname = CityofOrangetownship : 0 (0/0)
|   |   |   |   |   |   |   |   |   |   communityname = AgouraHillscity : 0 (0/0)
|   |   |   |   |   |   |   |   |   |   communityname = Randolphtown : 0 (0/0)
|   |   |   |   |   |   |   |   |   |   communityname = Newberrytownship : 0 (0/0)
|   |   |   |   |   |   |   |   |   |   communityname = Haddonfieldborough : 0 (0/0)
|   |   |   |   |   |   |   |   |   |   communityname = TheColonycity : 0 (0/0)
|   |   |   |   |   |   |   |   |   |   communityname = PortHuenemecity : 0 (0/0)
|   |   |   |   |   |   |   |   |   |   communityname = WestMonroecity : 0 (0/0)
|   |   |   |   |   |   |   |   |   |   communityname = Brookfieldcity : 0 (0/0)
|   |   |   |   |   |   |   |   |   |   communityname = Ketteringcity : 0 (0/0)
|   |   |   |   |   |   |   |   |   |   communityname = Lompoccity : 0 (0/0)
|   |   |   |   |   |   |   |   |   |   communityname = UpperArlingtoncity : 0 (0/0)
|   |   |   |   |   |   |   |   |   |   communityname = Midlandcity : 0 (0/0)
|   |   |   |   |   |   |   |   |   |   communityname = Greshamcity : 0 (0/0)
|   |   |   |   |   |   |   |   |   |   communityname = Kearnytown : 0 (0/0)
|   |   |   |   |   |   |   |   |   |   communityname = Secaucustown : 0 (0/0)
|   |   |   |   |   |   |   |   |   |   communityname = Swataratownship : 0 (0/0)
|   |   |   |   |   |   |   |   |   |   communityname = Middletowntownship : 0 (0/0)
|   |   |   |   |   |   |   |   |   |   communityname = BullheadCitycity : 0 (0/0)
|   |   |   |   |   |   |   |   |   |   communityname = Ogdensburgcity : 0 (0/0)
|   |   |   |   |   |   |   |   |   |   communityname = Goshentown : 0 (0/0)
|   |   |   |   |   |   |   |   |   |   communityname = Hulltown : 0 (0/0)
|   |   |   |   |   |   |   |   |   |   communityname = Woonsocketcity : 0 (0/0)
|   |   |   |   |   |   |   |   |   |   communityname = Bristolborough : 0 (0/0)
|   |   |   |   |   |   |   |   |   |   communityname = Moorparkcity : 0 (0/0)
|   |   |   |   |   |   |   |   |   |   communityname = Tiftoncity : 0 (0/0)
|   |   |   |   |   |   |   |   |   |   communityname = NorthCantoncity : 0 (0/0)
|   |   |   |   |   |   |   |   |   |   communityname = Shawneecity : 0 (0/0)
|   |   |   |   |   |   |   |   |   |   communityname = Bakersfieldcity : 0 (0/0)
|   |   |   |   |   |   |   |   |   |   communityname = Oshkoshcity : 0 (0/0)
|   |   |   |   |   |   |   |   |   |   communityname = Ringwoodborough : 0 (0/0)
|   |   |   |   |   |   |   |   |   |   communityname = Laceytownship : 0 (0/0)
|   |   |   |   |   |   |   |   |   |   communityname = Pittsburghcity : 0 (0/0)
